digraph Tree {
node [shape=box] ;
0 [label="protocol_type <= 53.0\nentropy = 0.716\nsamples = 494020\nvalue = [396743, 97277]"] ;
1 [label="dst_host_diff_srv_rate <= 0.005\nentropy = 0.042\nsamples = 283602\nvalue = [282314, 1288]"] ;
0 -> 1 [labeldistance=2.5, labelangle=45, headlabel="True"] ;
2 [label="wrong_fragment <= 0.5\nentropy = 0.021\nsamples = 282601\nvalue = [282015, 586]"] ;
1 -> 2 ;
3 [label="dst_host_srv_diff_host_rate <= 0.01\nentropy = 0.021\nsamples = 282459\nvalue = [281873, 586]"] ;
2 -> 3 ;
4 [label="service <= 25.5\nentropy = 0.021\nsamples = 281182\nvalue = [280629, 553]"] ;
3 -> 4 ;
5 [label="dst_host_count <= 2.5\nentropy = 0.148\nsamples = 236\nvalue = [5, 231]"] ;
4 -> 5 ;
6 [label="entropy = 0.991\nsamples = 9\nvalue = [5, 4]"] ;
5 -> 6 ;
7 [label="entropy = 0.0\nsamples = 227\nvalue = [0, 227]"] ;
5 -> 7 ;
8 [label="dst_host_count <= 251.0\nentropy = 0.013\nsamples = 280946\nvalue = [280624, 322]"] ;
4 -> 8 ;
9 [label="srv_count <= 217.0\nentropy = 0.473\nsamples = 355\nvalue = [36, 319]"] ;
8 -> 9 ;
10 [label="srv_count <= 1.5\nentropy = 0.211\nsamples = 329\nvalue = [11, 318]"] ;
9 -> 10 ;
11 [label="src_bytes <= 19.0\nentropy = 0.189\nsamples = 312\nvalue = [9, 303]"] ;
10 -> 11 ;
12 [label="entropy = 0.0\nsamples = 6\nvalue = [6, 0]"] ;
11 -> 12 ;
13 [label="service <= 49.5\nentropy = 0.079\nsamples = 306\nvalue = [3, 303]"] ;
11 -> 13 ;
14 [label="entropy = 0.0\nsamples = 302\nvalue = [0, 302]"] ;
13 -> 14 ;
15 [label="entropy = 0.811\nsamples = 4\nvalue = [3, 1]"] ;
13 -> 15 ;
16 [label="entropy = 0.523\nsamples = 17\nvalue = [2, 15]"] ;
10 -> 16 ;
17 [label="entropy = 0.235\nsamples = 26\nvalue = [25, 1]"] ;
9 -> 17 ;
18 [label="dst_host_srv_count <= 254.0\nentropy = 0.0\nsamples = 280591\nvalue = [280588, 3]"] ;
8 -> 18 ;
19 [label="entropy = 0.0\nsamples = 1\nvalue = [1, 0]"] ;
18 -> 19 ;
20 [label="srv_count <= 2.5\nentropy = 0.0\nsamples = 280590\nvalue = [280587, 3]"] ;
18 -> 20 ;
21 [label="entropy = 0.0\nsamples = 3\nvalue = [0, 3]"] ;
20 -> 21 ;
22 [label="entropy = 0.0\nsamples = 280587\nvalue = [280587, 0]"] ;
20 -> 22 ;
23 [label="srv_count <= 1.5\nentropy = 0.173\nsamples = 1277\nvalue = [1244, 33]"] ;
3 -> 23 ;
24 [label="src_bytes <= 24.0\nentropy = 0.435\nsamples = 369\nvalue = [336, 33]"] ;
23 -> 24 ;
25 [label="entropy = 0.0\nsamples = 336\nvalue = [336, 0]"] ;
24 -> 25 ;
26 [label="entropy = 0.0\nsamples = 33\nvalue = [0, 33]"] ;
24 -> 26 ;
27 [label="entropy = 0.0\nsamples = 908\nvalue = [908, 0]"] ;
23 -> 27 ;
28 [label="entropy = 0.0\nsamples = 142\nvalue = [142, 0]"] ;
2 -> 28 ;
29 [label="diff_srv_rate <= 0.02\nentropy = 0.88\nsamples = 1001\nvalue = [299, 702]"] ;
1 -> 29 ;
30 [label="src_bytes <= 798.0\nentropy = 0.999\nsamples = 577\nvalue = [299, 278]"] ;
29 -> 30 ;
31 [label="dst_host_same_srv_rate <= 0.245\nentropy = 0.128\nsamples = 283\nvalue = [5, 278]"] ;
30 -> 31 ;
32 [label="srv_count <= 1.5\nentropy = 0.067\nsamples = 249\nvalue = [2, 247]"] ;
31 -> 32 ;
33 [label="dst_host_serror_rate <= 0.005\nentropy = 0.119\nsamples = 124\nvalue = [2, 122]"] ;
32 -> 33 ;
34 [label="dst_host_count <= 66.0\nentropy = 0.121\nsamples = 122\nvalue = [2, 120]"] ;
33 -> 34 ;
35 [label="entropy = 0.65\nsamples = 6\nvalue = [1, 5]"] ;
34 -> 35 ;
36 [label="dst_host_same_srv_rate <= 0.005\nentropy = 0.072\nsamples = 116\nvalue = [1, 115]"] ;
34 -> 36 ;
37 [label="entropy = 0.918\nsamples = 3\nvalue = [1, 2]"] ;
36 -> 37 ;
38 [label="entropy = 0.0\nsamples = 113\nvalue = [0, 113]"] ;
36 -> 38 ;
39 [label="entropy = 0.0\nsamples = 2\nvalue = [0, 2]"] ;
33 -> 39 ;
40 [label="entropy = 0.0\nsamples = 125\nvalue = [0, 125]"] ;
32 -> 40 ;
41 [label="entropy = 0.431\nsamples = 34\nvalue = [3, 31]"] ;
31 -> 41 ;
42 [label="entropy = 0.0\nsamples = 294\nvalue = [294, 0]"] ;
30 -> 42 ;
43 [label="entropy = 0.0\nsamples = 424\nvalue = [0, 424]"] ;
29 -> 43 ;
44 [label="count <= 54.5\nentropy = 0.994\nsamples = 210418\nvalue = [114429, 95989]"] ;
0 -> 44 [labeldistance=2.5, labelangle=-45, headlabel="False"] ;
45 [label="dst_host_count <= 220.5\nentropy = 0.372\nsamples = 102134\nvalue = [7305, 94829]"] ;
44 -> 45 ;
46 [label="wrong_fragment <= 0.5\nentropy = 0.212\nsamples = 55973\nvalue = [1878, 54095]"] ;
45 -> 46 ;
47 [label="dst_host_same_src_port_rate <= 0.825\nentropy = 0.205\nsamples = 55895\nvalue = [1800, 54095]"] ;
46 -> 47 ;
48 [label="hot <= 0.5\nentropy = 0.139\nsamples = 52726\nvalue = [1030, 51696]"] ;
47 -> 48 ;
49 [label="dst_host_srv_rerror_rate <= 0.995\nentropy = 0.045\nsamples = 51533\nvalue = [257, 51276]"] ;
48 -> 49 ;
50 [label="srv_serror_rate <= 0.59\nentropy = 0.026\nsamples = 48933\nvalue = [128, 48805]"] ;
49 -> 50 ;
51 [label="dst_host_diff_srv_rate <= 0.055\nentropy = 0.013\nsamples = 48839\nvalue = [58, 48781]"] ;
50 -> 51 ;
52 [label="dst_host_srv_diff_host_rate <= 0.005\nentropy = 0.003\nsamples = 43635\nvalue = [9, 43626]"] ;
51 -> 52 ;
53 [label="dst_host_serror_rate <= 0.27\nentropy = 0.022\nsamples = 3675\nvalue = [8, 3667]"] ;
52 -> 53 ;
54 [label="dst_host_same_src_port_rate <= 0.145\nentropy = 0.02\nsamples = 3674\nvalue = [7, 3667]"] ;
53 -> 54 ;
55 [label="entropy = 0.0\nsamples = 2962\nvalue = [0, 2962]"] ;
54 -> 55 ;
56 [label="dst_host_same_src_port_rate <= 0.8\nentropy = 0.08\nsamples = 712\nvalue = [7, 705]"] ;
54 -> 56 ;
57 [label="src_bytes <= 144.0\nentropy = 0.07\nsamples = 710\nvalue = [6, 704]"] ;
56 -> 57 ;
58 [label="dst_host_srv_serror_rate <= 0.005\nentropy = 0.151\nsamples = 276\nvalue = [6, 270]"] ;
57 -> 58 ;
59 [label="dst_host_serror_rate <= 0.005\nentropy = 0.153\nsamples = 271\nvalue = [6, 265]"] ;
58 -> 59 ;
60 [label="src_bytes <= 99.0\nentropy = 0.16\nsamples = 257\nvalue = [6, 251]"] ;
59 -> 60 ;
61 [label="dst_host_same_srv_rate <= 0.98\nentropy = 0.075\nsamples = 219\nvalue = [2, 217]"] ;
60 -> 61 ;
62 [label="dst_host_same_srv_rate <= 0.285\nentropy = 0.045\nsamples = 200\nvalue = [1, 199]"] ;
61 -> 62 ;
63 [label="dst_host_srv_count <= 27.0\nentropy = 0.139\nsamples = 51\nvalue = [1, 50]"] ;
62 -> 63 ;
64 [label="entropy = 0.242\nsamples = 25\nvalue = [1, 24]"] ;
63 -> 64 ;
65 [label="entropy = 0.0\nsamples = 26\nvalue = [0, 26]"] ;
63 -> 65 ;
66 [label="entropy = 0.0\nsamples = 149\nvalue = [0, 149]"] ;
62 -> 66 ;
67 [label="entropy = 0.297\nsamples = 19\nvalue = [1, 18]"] ;
61 -> 67 ;
68 [label="entropy = 0.485\nsamples = 38\nvalue = [4, 34]"] ;
60 -> 68 ;
69 [label="entropy = 0.0\nsamples = 14\nvalue = [0, 14]"] ;
59 -> 69 ;
70 [label="entropy = 0.0\nsamples = 5\nvalue = [0, 5]"] ;
58 -> 70 ;
71 [label="entropy = 0.0\nsamples = 434\nvalue = [0, 434]"] ;
57 -> 71 ;
72 [label="entropy = 1.0\nsamples = 2\nvalue = [1, 1]"] ;
56 -> 72 ;
73 [label="entropy = 0.0\nsamples = 1\nvalue = [1, 0]"] ;
53 -> 73 ;
74 [label="src_bytes <= 2.5\nentropy = 0.0\nsamples = 39960\nvalue = [1, 39959]"] ;
52 -> 74 ;
75 [label="dst_host_diff_srv_rate <= 0.005\nentropy = 0.006\nsamples = 2105\nvalue = [1, 2104]"] ;
74 -> 75 ;
76 [label="entropy = 0.0\nsamples = 2087\nvalue = [0, 2087]"] ;
75 -> 76 ;
77 [label="entropy = 0.31\nsamples = 18\nvalue = [1, 17]"] ;
75 -> 77 ;
78 [label="entropy = 0.0\nsamples = 37855\nvalue = [0, 37855]"] ;
74 -> 78 ;
79 [label="srv_rerror_rate <= 0.75\nentropy = 0.077\nsamples = 5204\nvalue = [49, 5155]"] ;
51 -> 79 ;
80 [label="dst_host_rerror_rate <= 0.615\nentropy = 0.071\nsamples = 5179\nvalue = [44, 5135]"] ;
79 -> 80 ;
81 [label="root_shell <= 0.5\nentropy = 0.053\nsamples = 5116\nvalue = [31, 5085]"] ;
80 -> 81 ;
82 [label="srv_diff_host_rate <= 0.03\nentropy = 0.052\nsamples = 5112\nvalue = [30, 5082]"] ;
81 -> 82 ;
83 [label="dst_host_srv_count <= 40.5\nentropy = 0.071\nsamples = 3369\nvalue = [29, 3340]"] ;
82 -> 83 ;
84 [label="dst_host_count <= 11.5\nentropy = 0.153\nsamples = 1175\nvalue = [26, 1149]"] ;
83 -> 84 ;
85 [label="dst_host_same_src_port_rate <= 0.475\nentropy = 0.483\nsamples = 134\nvalue = [14, 120]"] ;
84 -> 85 ;
86 [label="dst_host_same_srv_rate <= 0.71\nentropy = 0.239\nsamples = 102\nvalue = [4, 98]"] ;
85 -> 86 ;
87 [label="duration <= 4.5\nentropy = 0.284\nsamples = 81\nvalue = [4, 77]"] ;
86 -> 87 ;
88 [label="dst_host_same_src_port_rate <= 0.315\nentropy = 0.107\nsamples = 71\nvalue = [1, 70]"] ;
87 -> 88 ;
89 [label="entropy = 0.0\nsamples = 56\nvalue = [0, 56]"] ;
88 -> 89 ;
90 [label="entropy = 0.353\nsamples = 15\nvalue = [1, 14]"] ;
88 -> 90 ;
91 [label="entropy = 0.881\nsamples = 10\nvalue = [3, 7]"] ;
87 -> 91 ;
92 [label="entropy = 0.0\nsamples = 21\nvalue = [0, 21]"] ;
86 -> 92 ;
93 [label="entropy = 0.896\nsamples = 32\nvalue = [10, 22]"] ;
85 -> 93 ;
94 [label="dst_host_diff_srv_rate <= 0.085\nentropy = 0.091\nsamples = 1041\nvalue = [12, 1029]"] ;
84 -> 94 ;
95 [label="src_bytes <= 3.0\nentropy = 0.18\nsamples = 443\nvalue = [12, 431]"] ;
94 -> 95 ;
96 [label="entropy = 0.811\nsamples = 4\nvalue = [3, 1]"] ;
95 -> 96 ;
97 [label="dst_host_srv_diff_host_rate <= 0.025\nentropy = 0.144\nsamples = 439\nvalue = [9, 430]"] ;
95 -> 97 ;
98 [label="dst_host_srv_count <= 4.5\nentropy = 0.182\nsamples = 290\nvalue = [8, 282]"] ;
97 -> 98 ;
99 [label="duration <= 0.5\nentropy = 0.531\nsamples = 58\nvalue = [7, 51]"] ;
98 -> 99 ;
100 [label="dst_host_diff_srv_rate <= 0.075\nentropy = 0.615\nsamples = 46\nvalue = [7, 39]"] ;
99 -> 100 ;
101 [label="entropy = 0.529\nsamples = 25\nvalue = [3, 22]"] ;
100 -> 101 ;
102 [label="entropy = 0.702\nsamples = 21\nvalue = [4, 17]"] ;
100 -> 102 ;
103 [label="entropy = 0.0\nsamples = 12\nvalue = [0, 12]"] ;
99 -> 103 ;
104 [label="duration <= 2.5\nentropy = 0.04\nsamples = 232\nvalue = [1, 231]"] ;
98 -> 104 ;
105 [label="entropy = 0.0\nsamples = 200\nvalue = [0, 200]"] ;
104 -> 105 ;
106 [label="entropy = 0.201\nsamples = 32\nvalue = [1, 31]"] ;
104 -> 106 ;
107 [label="dst_host_count <= 103.0\nentropy = 0.058\nsamples = 149\nvalue = [1, 148]"] ;
97 -> 107 ;
108 [label="entropy = 0.0\nsamples = 130\nvalue = [0, 130]"] ;
107 -> 108 ;
109 [label="entropy = 0.297\nsamples = 19\nvalue = [1, 18]"] ;
107 -> 109 ;
110 [label="entropy = 0.0\nsamples = 598\nvalue = [0, 598]"] ;
94 -> 110 ;
111 [label="dst_host_srv_serror_rate <= 0.025\nentropy = 0.015\nsamples = 2194\nvalue = [3, 2191]"] ;
83 -> 111 ;
112 [label="dst_host_diff_srv_rate <= 0.385\nentropy = 0.006\nsamples = 2171\nvalue = [1, 2170]"] ;
111 -> 112 ;
113 [label="entropy = 0.0\nsamples = 2047\nvalue = [0, 2047]"] ;
112 -> 113 ;
114 [label="src_bytes <= 1696.5\nentropy = 0.068\nsamples = 124\nvalue = [1, 123]"] ;
112 -> 114 ;
115 [label="entropy = 0.0\nsamples = 97\nvalue = [0, 97]"] ;
114 -> 115 ;
116 [label="entropy = 0.229\nsamples = 27\nvalue = [1, 26]"] ;
114 -> 116 ;
117 [label="entropy = 0.426\nsamples = 23\nvalue = [2, 21]"] ;
111 -> 117 ;
118 [label="dst_host_serror_rate <= 0.755\nentropy = 0.007\nsamples = 1743\nvalue = [1, 1742]"] ;
82 -> 118 ;
119 [label="entropy = 0.0\nsamples = 1742\nvalue = [0, 1742]"] ;
118 -> 119 ;
120 [label="entropy = 0.0\nsamples = 1\nvalue = [1, 0]"] ;
118 -> 120 ;
121 [label="entropy = 0.811\nsamples = 4\nvalue = [1, 3]"] ;
81 -> 121 ;
122 [label="num_root <= 0.5\nentropy = 0.734\nsamples = 63\nvalue = [13, 50]"] ;
80 -> 122 ;
123 [label="dst_host_count <= 125.5\nentropy = 0.811\nsamples = 52\nvalue = [13, 39]"] ;
122 -> 123 ;
124 [label="src_bytes <= 2.5\nentropy = 0.658\nsamples = 47\nvalue = [8, 39]"] ;
123 -> 124 ;
125 [label="entropy = 0.0\nsamples = 8\nvalue = [8, 0]"] ;
124 -> 125 ;
126 [label="entropy = 0.0\nsamples = 39\nvalue = [0, 39]"] ;
124 -> 126 ;
127 [label="entropy = 0.0\nsamples = 5\nvalue = [5, 0]"] ;
123 -> 127 ;
128 [label="entropy = 0.0\nsamples = 11\nvalue = [0, 11]"] ;
122 -> 128 ;
129 [label="entropy = 0.722\nsamples = 25\nvalue = [5, 20]"] ;
79 -> 129 ;
130 [label="count <= 1.5\nentropy = 0.82\nsamples = 94\nvalue = [70, 24]"] ;
50 -> 130 ;
131 [label="entropy = 0.977\nsamples = 39\nvalue = [16, 23]"] ;
130 -> 131 ;
132 [label="dst_host_srv_count <= 1.5\nentropy = 0.131\nsamples = 55\nvalue = [54, 1]"] ;
130 -> 132 ;
133 [label="entropy = 1.0\nsamples = 2\nvalue = [1, 1]"] ;
132 -> 133 ;
134 [label="entropy = 0.0\nsamples = 53\nvalue = [53, 0]"] ;
132 -> 134 ;
135 [label="dst_host_same_src_port_rate <= 0.51\nentropy = 0.285\nsamples = 2600\nvalue = [129, 2471]"] ;
49 -> 135 ;
136 [label="dst_host_srv_count <= 2.5\nentropy = 0.272\nsamples = 2592\nvalue = [121, 2471]"] ;
135 -> 136 ;
137 [label="srv_rerror_rate <= 0.625\nentropy = 0.414\nsamples = 132\nvalue = [121, 11]"] ;
136 -> 137 ;
138 [label="entropy = 0.0\nsamples = 1\nvalue = [0, 1]"] ;
137 -> 138 ;
139 [label="dst_host_rerror_rate <= 0.025\nentropy = 0.389\nsamples = 131\nvalue = [121, 10]"] ;
137 -> 139 ;
140 [label="entropy = 0.0\nsamples = 3\nvalue = [0, 3]"] ;
139 -> 140 ;
141 [label="dst_bytes <= 2657.5\nentropy = 0.306\nsamples = 128\nvalue = [121, 7]"] ;
139 -> 141 ;
142 [label="dst_host_rerror_rate <= 0.99\nentropy = 0.241\nsamples = 126\nvalue = [121, 5]"] ;
141 -> 142 ;
143 [label="dst_host_diff_srv_rate <= 0.75\nentropy = 0.071\nsamples = 117\nvalue = [116, 1]"] ;
142 -> 143 ;
144 [label="entropy = 0.0\nsamples = 39\nvalue = [39, 0]"] ;
143 -> 144 ;
145 [label="dst_host_srv_count <= 1.5\nentropy = 0.099\nsamples = 78\nvalue = [77, 1]"] ;
143 -> 145 ;
146 [label="entropy = 0.297\nsamples = 19\nvalue = [18, 1]"] ;
145 -> 146 ;
147 [label="entropy = 0.0\nsamples = 59\nvalue = [59, 0]"] ;
145 -> 147 ;
148 [label="entropy = 0.991\nsamples = 9\nvalue = [5, 4]"] ;
142 -> 148 ;
149 [label="entropy = 0.0\nsamples = 2\nvalue = [0, 2]"] ;
141 -> 149 ;
150 [label="entropy = 0.0\nsamples = 2460\nvalue = [0, 2460]"] ;
136 -> 150 ;
151 [label="entropy = 0.0\nsamples = 8\nvalue = [8, 0]"] ;
135 -> 151 ;
152 [label="num_compromised <= 0.5\nentropy = 0.936\nsamples = 1193\nvalue = [773, 420]"] ;
48 -> 152 ;
153 [label="num_failed_logins <= 0.5\nentropy = 0.833\nsamples = 556\nvalue = [147, 409]"] ;
152 -> 153 ;
154 [label="dst_bytes <= 2422.5\nentropy = 0.705\nsamples = 506\nvalue = [97, 409]"] ;
153 -> 154 ;
155 [label="src_bytes <= 11045.5\nentropy = 0.149\nsamples = 281\nvalue = [6, 275]"] ;
154 -> 155 ;
156 [label="serror_rate <= 0.415\nentropy = 0.086\nsamples = 278\nvalue = [3, 275]"] ;
155 -> 156 ;
157 [label="dst_host_srv_diff_host_rate <= 0.005\nentropy = 0.063\nsamples = 271\nvalue = [2, 269]"] ;
156 -> 157 ;
158 [label="dst_host_serror_rate <= 0.035\nentropy = 0.071\nsamples = 234\nvalue = [2, 232]"] ;
157 -> 158 ;
159 [label="dst_host_diff_srv_rate <= 0.71\nentropy = 0.04\nsamples = 233\nvalue = [1, 232]"] ;
158 -> 159 ;
160 [label="entropy = 0.0\nsamples = 229\nvalue = [0, 229]"] ;
159 -> 160 ;
161 [label="entropy = 0.811\nsamples = 4\nvalue = [1, 3]"] ;
159 -> 161 ;
162 [label="entropy = 0.0\nsamples = 1\nvalue = [1, 0]"] ;
158 -> 162 ;
163 [label="entropy = 0.0\nsamples = 37\nvalue = [0, 37]"] ;
157 -> 163 ;
164 [label="entropy = 0.592\nsamples = 7\nvalue = [1, 6]"] ;
156 -> 164 ;
165 [label="entropy = 0.0\nsamples = 3\nvalue = [3, 0]"] ;
155 -> 165 ;
166 [label="is_guest_login <= 0.5\nentropy = 0.973\nsamples = 225\nvalue = [91, 134]"] ;
154 -> 166 ;
167 [label="dst_host_srv_rerror_rate <= 0.015\nentropy = 0.863\nsamples = 63\nvalue = [18, 45]"] ;
166 -> 167 ;
168 [label="entropy = 0.0\nsamples = 40\nvalue = [0, 40]"] ;
167 -> 168 ;
169 [label="entropy = 0.755\nsamples = 23\nvalue = [18, 5]"] ;
167 -> 169 ;
170 [label="dst_host_rerror_rate <= 0.005\nentropy = 0.993\nsamples = 162\nvalue = [73, 89]"] ;
166 -> 170 ;
171 [label="entropy = 0.0\nsamples = 80\nvalue = [0, 80]"] ;
170 -> 171 ;
172 [label="dst_host_count <= 97.5\nentropy = 0.499\nsamples = 82\nvalue = [73, 9]"] ;
170 -> 172 ;
173 [label="entropy = 0.0\nsamples = 3\nvalue = [0, 3]"] ;
172 -> 173 ;
174 [label="dst_host_srv_rerror_rate <= 0.01\nentropy = 0.388\nsamples = 79\nvalue = [73, 6]"] ;
172 -> 174 ;
175 [label="entropy = 0.0\nsamples = 73\nvalue = [73, 0]"] ;
174 -> 175 ;
176 [label="entropy = 0.0\nsamples = 6\nvalue = [0, 6]"] ;
174 -> 176 ;
177 [label="entropy = 0.0\nsamples = 50\nvalue = [50, 0]"] ;
153 -> 177 ;
178 [label="dst_bytes <= 7928.0\nentropy = 0.126\nsamples = 637\nvalue = [626, 11]"] ;
152 -> 178 ;
179 [label="entropy = 0.964\nsamples = 18\nvalue = [11, 7]"] ;
178 -> 179 ;
180 [label="dst_host_diff_srv_rate <= 0.015\nentropy = 0.056\nsamples = 619\nvalue = [615, 4]"] ;
178 -> 180 ;
181 [label="entropy = 0.0\nsamples = 615\nvalue = [615, 0]"] ;
180 -> 181 ;
182 [label="entropy = 0.0\nsamples = 4\nvalue = [0, 4]"] ;
180 -> 182 ;
183 [label="srv_diff_host_rate <= 0.005\nentropy = 0.8\nsamples = 3169\nvalue = [770, 2399]"] ;
47 -> 183 ;
184 [label="flag <= 4.0\nentropy = 0.887\nsamples = 2416\nvalue = [737, 1679]"] ;
183 -> 184 ;
185 [label="dst_host_srv_rerror_rate <= 0.035\nentropy = 0.045\nsamples = 611\nvalue = [3, 608]"] ;
184 -> 185 ;
186 [label="entropy = 0.954\nsamples = 8\nvalue = [3, 5]"] ;
185 -> 186 ;
187 [label="entropy = 0.0\nsamples = 603\nvalue = [0, 603]"] ;
185 -> 187 ;
188 [label="dst_host_srv_count <= 66.5\nentropy = 0.975\nsamples = 1805\nvalue = [734, 1071]"] ;
184 -> 188 ;
189 [label="dst_bytes <= 0.5\nentropy = 0.871\nsamples = 1014\nvalue = [718, 296]"] ;
188 -> 189 ;
190 [label="src_bytes <= 199.5\nentropy = 0.529\nsamples = 760\nvalue = [669, 91]"] ;
189 -> 190 ;
191 [label="dst_host_srv_serror_rate <= 0.01\nentropy = 0.922\nsamples = 89\nvalue = [30, 59]"] ;
190 -> 191 ;
192 [label="dst_host_serror_rate <= 0.09\nentropy = 0.4\nsamples = 63\nvalue = [5, 58]"] ;
191 -> 192 ;
193 [label="dst_host_same_src_port_rate <= 0.985\nentropy = 0.345\nsamples = 62\nvalue = [4, 58]"] ;
192 -> 193 ;
194 [label="entropy = 0.0\nsamples = 32\nvalue = [0, 32]"] ;
193 -> 194 ;
195 [label="entropy = 0.567\nsamples = 30\nvalue = [4, 26]"] ;
193 -> 195 ;
196 [label="entropy = 0.0\nsamples = 1\nvalue = [1, 0]"] ;
192 -> 196 ;
197 [label="entropy = 0.235\nsamples = 26\nvalue = [25, 1]"] ;
191 -> 197 ;
198 [label="srv_count <= 2.5\nentropy = 0.277\nsamples = 671\nvalue = [639, 32]"] ;
190 -> 198 ;
199 [label="dst_host_srv_diff_host_rate <= 0.085\nentropy = 0.141\nsamples = 652\nvalue = [639, 13]"] ;
198 -> 199 ;
200 [label="dst_host_srv_diff_host_rate <= 0.015\nentropy = 0.435\nsamples = 145\nvalue = [132, 13]"] ;
199 -> 200 ;
201 [label="src_bytes <= 450.5\nentropy = 0.302\nsamples = 93\nvalue = [88, 5]"] ;
200 -> 201 ;
202 [label="entropy = 0.0\nsamples = 81\nvalue = [81, 0]"] ;
201 -> 202 ;
203 [label="entropy = 0.98\nsamples = 12\nvalue = [7, 5]"] ;
201 -> 203 ;
204 [label="dst_host_same_srv_rate <= 0.95\nentropy = 0.619\nsamples = 52\nvalue = [44, 8]"] ;
200 -> 204 ;
205 [label="entropy = 0.0\nsamples = 4\nvalue = [0, 4]"] ;
204 -> 205 ;
206 [label="logged_in <= 0.5\nentropy = 0.414\nsamples = 48\nvalue = [44, 4]"] ;
204 -> 206 ;
207 [label="entropy = 0.0\nsamples = 2\nvalue = [0, 2]"] ;
206 -> 207 ;
208 [label="src_bytes <= 3015.0\nentropy = 0.258\nsamples = 46\nvalue = [44, 2]"] ;
206 -> 208 ;
209 [label="entropy = 0.0\nsamples = 37\nvalue = [37, 0]"] ;
208 -> 209 ;
210 [label="entropy = 0.764\nsamples = 9\nvalue = [7, 2]"] ;
208 -> 210 ;
211 [label="entropy = 0.0\nsamples = 507\nvalue = [507, 0]"] ;
199 -> 211 ;
212 [label="entropy = 0.0\nsamples = 19\nvalue = [0, 19]"] ;
198 -> 212 ;
213 [label="logged_in <= 0.5\nentropy = 0.708\nsamples = 254\nvalue = [49, 205]"] ;
189 -> 213 ;
214 [label="dst_host_same_srv_rate <= 0.97\nentropy = 0.557\nsamples = 185\nvalue = [24, 161]"] ;
213 -> 214 ;
215 [label="entropy = 0.0\nsamples = 108\nvalue = [0, 108]"] ;
214 -> 215 ;
216 [label="duration <= 96.0\nentropy = 0.895\nsamples = 77\nvalue = [24, 53]"] ;
214 -> 216 ;
217 [label="src_bytes <= 6.0\nentropy = 0.946\nsamples = 66\nvalue = [24, 42]"] ;
216 -> 217 ;
218 [label="entropy = 0.267\nsamples = 22\nvalue = [21, 1]"] ;
217 -> 218 ;
219 [label="num_failed_logins <= 0.5\nentropy = 0.359\nsamples = 44\nvalue = [3, 41]"] ;
217 -> 219 ;
220 [label="count <= 1.5\nentropy = 0.162\nsamples = 42\nvalue = [1, 41]"] ;
219 -> 220 ;
221 [label="entropy = 0.206\nsamples = 31\nvalue = [1, 30]"] ;
220 -> 221 ;
222 [label="entropy = 0.0\nsamples = 11\nvalue = [0, 11]"] ;
220 -> 222 ;
223 [label="entropy = 0.0\nsamples = 2\nvalue = [2, 0]"] ;
219 -> 223 ;
224 [label="entropy = 0.0\nsamples = 11\nvalue = [0, 11]"] ;
216 -> 224 ;
225 [label="num_file_creations <= 0.5\nentropy = 0.945\nsamples = 69\nvalue = [25, 44]"] ;
213 -> 225 ;
226 [label="srv_count <= 1.5\nentropy = 0.804\nsamples = 57\nvalue = [14, 43]"] ;
225 -> 226 ;
227 [label="root_shell <= 0.5\nentropy = 0.627\nsamples = 51\nvalue = [8, 43]"] ;
226 -> 227 ;
228 [label="srv_serror_rate <= 0.5\nentropy = 0.489\nsamples = 47\nvalue = [5, 42]"] ;
227 -> 228 ;
229 [label="dst_host_srv_count <= 3.5\nentropy = 0.496\nsamples = 46\nvalue = [5, 41]"] ;
228 -> 229 ;
230 [label="entropy = 0.702\nsamples = 21\nvalue = [4, 17]"] ;
229 -> 230 ;
231 [label="entropy = 0.242\nsamples = 25\nvalue = [1, 24]"] ;
229 -> 231 ;
232 [label="entropy = 0.0\nsamples = 1\nvalue = [0, 1]"] ;
228 -> 232 ;
233 [label="entropy = 0.811\nsamples = 4\nvalue = [3, 1]"] ;
227 -> 233 ;
234 [label="entropy = 0.0\nsamples = 6\nvalue = [6, 0]"] ;
226 -> 234 ;
235 [label="entropy = 0.414\nsamples = 12\nvalue = [11, 1]"] ;
225 -> 235 ;
236 [label="dst_host_same_src_port_rate <= 0.875\nentropy = 0.143\nsamples = 791\nvalue = [16, 775]"] ;
188 -> 236 ;
237 [label="entropy = 0.878\nsamples = 37\nvalue = [11, 26]"] ;
236 -> 237 ;
238 [label="logged_in <= 0.5\nentropy = 0.058\nsamples = 754\nvalue = [5, 749]"] ;
236 -> 238 ;
239 [label="entropy = 0.0\nsamples = 164\nvalue = [0, 164]"] ;
238 -> 239 ;
240 [label="root_shell <= 0.5\nentropy = 0.071\nsamples = 590\nvalue = [5, 585]"] ;
238 -> 240 ;
241 [label="service <= 32.5\nentropy = 0.059\nsamples = 589\nvalue = [4, 585]"] ;
240 -> 241 ;
242 [label="entropy = 0.555\nsamples = 31\nvalue = [4, 27]"] ;
241 -> 242 ;
243 [label="entropy = 0.0\nsamples = 558\nvalue = [0, 558]"] ;
241 -> 243 ;
244 [label="entropy = 0.0\nsamples = 1\nvalue = [1, 0]"] ;
240 -> 244 ;
245 [label="src_bytes <= 34958.5\nentropy = 0.26\nsamples = 753\nvalue = [33, 720]"] ;
183 -> 245 ;
246 [label="srv_diff_host_rate <= 0.275\nentropy = 0.224\nsamples = 747\nvalue = [27, 720]"] ;
245 -> 246 ;
247 [label="entropy = 0.0\nsamples = 177\nvalue = [0, 177]"] ;
246 -> 247 ;
248 [label="land <= 0.5\nentropy = 0.275\nsamples = 570\nvalue = [27, 543]"] ;
246 -> 248 ;
249 [label="dst_host_serror_rate <= 0.295\nentropy = 0.17\nsamples = 556\nvalue = [14, 542]"] ;
248 -> 249 ;
250 [label="dst_host_diff_srv_rate <= 0.265\nentropy = 0.131\nsamples = 548\nvalue = [10, 538]"] ;
249 -> 250 ;
251 [label="dst_host_srv_count <= 84.5\nentropy = 0.121\nsamples = 547\nvalue = [9, 538]"] ;
250 -> 251 ;
252 [label="protocol_type <= 72.5\nentropy = 0.409\nsamples = 110\nvalue = [9, 101]"] ;
251 -> 252 ;
253 [label="duration <= 0.5\nentropy = 0.696\nsamples = 48\nvalue = [9, 39]"] ;
252 -> 253 ;
254 [label="count <= 1.5\nentropy = 0.567\nsamples = 45\nvalue = [6, 39]"] ;
253 -> 254 ;
255 [label="entropy = 0.391\nsamples = 39\nvalue = [3, 36]"] ;
254 -> 255 ;
256 [label="entropy = 1.0\nsamples = 6\nvalue = [3, 3]"] ;
254 -> 256 ;
257 [label="entropy = 0.0\nsamples = 3\nvalue = [3, 0]"] ;
253 -> 257 ;
258 [label="entropy = 0.0\nsamples = 62\nvalue = [0, 62]"] ;
252 -> 258 ;
259 [label="entropy = 0.0\nsamples = 437\nvalue = [0, 437]"] ;
251 -> 259 ;
260 [label="entropy = 0.0\nsamples = 1\nvalue = [1, 0]"] ;
250 -> 260 ;
261 [label="entropy = 1.0\nsamples = 8\nvalue = [4, 4]"] ;
249 -> 261 ;
262 [label="entropy = 0.371\nsamples = 14\nvalue = [13, 1]"] ;
248 -> 262 ;
263 [label="entropy = 0.0\nsamples = 6\nvalue = [6, 0]"] ;
245 -> 263 ;
264 [label="entropy = 0.0\nsamples = 78\nvalue = [78, 0]"] ;
46 -> 264 ;
265 [label="num_compromised <= 0.5\nentropy = 0.522\nsamples = 46161\nvalue = [5427, 40734]"] ;
45 -> 265 ;
266 [label="dst_bytes <= 5.0\nentropy = 0.429\nsamples = 44621\nvalue = [3913, 40708]"] ;
265 -> 266 ;
267 [label="duration <= 2.5\nentropy = 1.0\nsamples = 7112\nvalue = [3605, 3507]"] ;
266 -> 267 ;
268 [label="srv_count <= 2.5\nentropy = 1.0\nsamples = 6991\nvalue = [3484, 3507]"] ;
267 -> 268 ;
269 [label="src_bytes <= 28.5\nentropy = 0.898\nsamples = 4451\nvalue = [1397, 3054]"] ;
268 -> 269 ;
270 [label="dst_host_srv_count <= 124.0\nentropy = 0.301\nsamples = 1438\nvalue = [1361, 77]"] ;
269 -> 270 ;
271 [label="src_bytes <= 7.5\nentropy = 0.077\nsamples = 1374\nvalue = [1361, 13]"] ;
270 -> 271 ;
272 [label="same_srv_rate <= 0.835\nentropy = 0.023\nsamples = 1352\nvalue = [1349, 3]"] ;
271 -> 272 ;
273 [label="entropy = 0.0\nsamples = 590\nvalue = [590, 0]"] ;
272 -> 273 ;
274 [label="service <= 70.0\nentropy = 0.037\nsamples = 762\nvalue = [759, 3]"] ;
272 -> 274 ;
275 [label="dst_host_serror_rate <= 0.005\nentropy = 0.015\nsamples = 757\nvalue = [756, 1]"] ;
274 -> 275 ;
276 [label="dst_host_srv_rerror_rate <= 0.56\nentropy = 0.017\nsamples = 613\nvalue = [612, 1]"] ;
275 -> 276 ;
277 [label="entropy = 0.544\nsamples = 8\nvalue = [7, 1]"] ;
276 -> 277 ;
278 [label="entropy = 0.0\nsamples = 605\nvalue = [605, 0]"] ;
276 -> 278 ;
279 [label="entropy = 0.0\nsamples = 144\nvalue = [144, 0]"] ;
275 -> 279 ;
280 [label="entropy = 0.971\nsamples = 5\nvalue = [3, 2]"] ;
274 -> 280 ;
281 [label="entropy = 0.994\nsamples = 22\nvalue = [12, 10]"] ;
271 -> 281 ;
282 [label="entropy = 0.0\nsamples = 64\nvalue = [0, 64]"] ;
270 -> 282 ;
283 [label="dst_host_diff_srv_rate <= 0.145\nentropy = 0.093\nsamples = 3013\nvalue = [36, 2977]"] ;
269 -> 283 ;
284 [label="dst_host_srv_count <= 202.5\nentropy = 0.133\nsamples = 1949\nvalue = [36, 1913]"] ;
283 -> 284 ;
285 [label="service <= 27.0\nentropy = 0.448\nsamples = 374\nvalue = [35, 339]"] ;
284 -> 285 ;
286 [label="entropy = 0.0\nsamples = 80\nvalue = [0, 80]"] ;
285 -> 286 ;
287 [label="dst_host_diff_srv_rate <= 0.065\nentropy = 0.527\nsamples = 294\nvalue = [35, 259]"] ;
285 -> 287 ;
288 [label="dst_host_diff_srv_rate <= 0.035\nentropy = 0.362\nsamples = 261\nvalue = [18, 243]"] ;
287 -> 288 ;
289 [label="dst_host_count <= 226.5\nentropy = 0.384\nsamples = 240\nvalue = [18, 222]"] ;
288 -> 289 ;
290 [label="entropy = 0.797\nsamples = 29\nvalue = [7, 22]"] ;
289 -> 290 ;
291 [label="diff_srv_rate <= 0.085\nentropy = 0.295\nsamples = 211\nvalue = [11, 200]"] ;
289 -> 291 ;
292 [label="protocol_type <= 72.5\nentropy = 0.315\nsamples = 193\nvalue = [11, 182]"] ;
291 -> 292 ;
293 [label="dst_host_rerror_rate <= 0.005\nentropy = 0.26\nsamples = 182\nvalue = [8, 174]"] ;
292 -> 293 ;
294 [label="dst_host_diff_srv_rate <= 0.015\nentropy = 0.27\nsamples = 173\nvalue = [8, 165]"] ;
293 -> 294 ;
295 [label="entropy = 0.0\nsamples = 22\nvalue = [0, 22]"] ;
294 -> 295 ;
296 [label="num_root <= 0.5\nentropy = 0.299\nsamples = 151\nvalue = [8, 143]"] ;
294 -> 296 ;
297 [label="logged_in <= 0.5\nentropy = 0.355\nsamples = 119\nvalue = [8, 111]"] ;
296 -> 297 ;
298 [label="entropy = 0.0\nsamples = 33\nvalue = [0, 33]"] ;
297 -> 298 ;
299 [label="dst_host_count <= 249.5\nentropy = 0.446\nsamples = 86\nvalue = [8, 78]"] ;
297 -> 299 ;
300 [label="entropy = 0.0\nsamples = 22\nvalue = [0, 22]"] ;
299 -> 300 ;
301 [label="dst_host_same_src_port_rate <= 0.195\nentropy = 0.544\nsamples = 64\nvalue = [8, 56]"] ;
299 -> 301 ;
302 [label="entropy = 0.0\nsamples = 12\nvalue = [0, 12]"] ;
301 -> 302 ;
303 [label="num_shells <= 0.5\nentropy = 0.619\nsamples = 52\nvalue = [8, 44]"] ;
301 -> 303 ;
304 [label="srv_count <= 1.5\nentropy = 0.627\nsamples = 51\nvalue = [8, 43]"] ;
303 -> 304 ;
305 [label="entropy = 0.764\nsamples = 18\nvalue = [4, 14]"] ;
304 -> 305 ;
306 [label="entropy = 0.533\nsamples = 33\nvalue = [4, 29]"] ;
304 -> 306 ;
307 [label="entropy = 0.0\nsamples = 1\nvalue = [0, 1]"] ;
303 -> 307 ;
308 [label="entropy = 0.0\nsamples = 32\nvalue = [0, 32]"] ;
296 -> 308 ;
309 [label="entropy = 0.0\nsamples = 9\nvalue = [0, 9]"] ;
293 -> 309 ;
310 [label="entropy = 0.845\nsamples = 11\nvalue = [3, 8]"] ;
292 -> 310 ;
311 [label="entropy = 0.0\nsamples = 18\nvalue = [0, 18]"] ;
291 -> 311 ;
312 [label="entropy = 0.0\nsamples = 21\nvalue = [0, 21]"] ;
288 -> 312 ;
313 [label="entropy = 0.999\nsamples = 33\nvalue = [17, 16]"] ;
287 -> 313 ;
314 [label="dst_host_rerror_rate <= 0.035\nentropy = 0.008\nsamples = 1575\nvalue = [1, 1574]"] ;
284 -> 314 ;
315 [label="entropy = 0.0\nsamples = 1574\nvalue = [0, 1574]"] ;
314 -> 315 ;
316 [label="entropy = 0.0\nsamples = 1\nvalue = [1, 0]"] ;
314 -> 316 ;
317 [label="entropy = 0.0\nsamples = 1064\nvalue = [0, 1064]"] ;
283 -> 317 ;
318 [label="src_bytes <= 28.5\nentropy = 0.676\nsamples = 2540\nvalue = [2087, 453]"] ;
268 -> 318 ;
319 [label="service <= 34.5\nentropy = 0.02\nsamples = 2091\nvalue = [2087, 4]"] ;
318 -> 319 ;
320 [label="diff_srv_rate <= 0.025\nentropy = 0.174\nsamples = 154\nvalue = [150, 4]"] ;
319 -> 320 ;
321 [label="entropy = 0.918\nsamples = 12\nvalue = [8, 4]"] ;
320 -> 321 ;
322 [label="entropy = 0.0\nsamples = 142\nvalue = [142, 0]"] ;
320 -> 322 ;
323 [label="entropy = 0.0\nsamples = 1937\nvalue = [1937, 0]"] ;
319 -> 323 ;
324 [label="entropy = 0.0\nsamples = 449\nvalue = [0, 449]"] ;
318 -> 324 ;
325 [label="entropy = 0.0\nsamples = 121\nvalue = [121, 0]"] ;
267 -> 325 ;
326 [label="hot <= 0.5\nentropy = 0.069\nsamples = 37509\nvalue = [308, 37201]"] ;
266 -> 326 ;
327 [label="dst_host_srv_rerror_rate <= 0.025\nentropy = 0.007\nsamples = 37116\nvalue = [21, 37095]"] ;
326 -> 327 ;
328 [label="dst_host_srv_count <= 48.5\nentropy = 0.005\nsamples = 36905\nvalue = [14, 36891]"] ;
327 -> 328 ;
329 [label="duration <= 339.5\nentropy = 0.028\nsamples = 4859\nvalue = [14, 4845]"] ;
328 -> 329 ;
330 [label="num_shells <= 0.5\nentropy = 0.152\nsamples = 637\nvalue = [14, 623]"] ;
329 -> 330 ;
331 [label="serror_rate <= 0.015\nentropy = 0.126\nsamples = 634\nvalue = [11, 623]"] ;
330 -> 331 ;
332 [label="dst_host_rerror_rate <= 0.04\nentropy = 0.117\nsamples = 633\nvalue = [10, 623]"] ;
331 -> 332 ;
333 [label="dst_bytes <= 33.0\nentropy = 0.057\nsamples = 608\nvalue = [4, 604]"] ;
332 -> 333 ;
334 [label="entropy = 1.0\nsamples = 2\nvalue = [1, 1]"] ;
333 -> 334 ;
335 [label="count <= 1.5\nentropy = 0.045\nsamples = 606\nvalue = [3, 603]"] ;
333 -> 335 ;
336 [label="num_failed_logins <= 0.5\nentropy = 0.05\nsamples = 529\nvalue = [3, 526]"] ;
335 -> 336 ;
337 [label="service <= 68.5\nentropy = 0.036\nsamples = 527\nvalue = [2, 525]"] ;
336 -> 337 ;
338 [label="entropy = 0.0\nsamples = 508\nvalue = [0, 508]"] ;
337 -> 338 ;
339 [label="entropy = 0.485\nsamples = 19\nvalue = [2, 17]"] ;
337 -> 339 ;
340 [label="entropy = 1.0\nsamples = 2\nvalue = [1, 1]"] ;
336 -> 340 ;
341 [label="entropy = 0.0\nsamples = 77\nvalue = [0, 77]"] ;
335 -> 341 ;
342 [label="entropy = 0.795\nsamples = 25\nvalue = [6, 19]"] ;
332 -> 342 ;
343 [label="entropy = 0.0\nsamples = 1\nvalue = [1, 0]"] ;
331 -> 343 ;
344 [label="entropy = 0.0\nsamples = 3\nvalue = [3, 0]"] ;
330 -> 344 ;
345 [label="entropy = 0.0\nsamples = 4222\nvalue = [0, 4222]"] ;
329 -> 345 ;
346 [label="entropy = 0.0\nsamples = 32046\nvalue = [0, 32046]"] ;
328 -> 346 ;
347 [label="dst_host_srv_serror_rate <= 0.005\nentropy = 0.21\nsamples = 211\nvalue = [7, 204]"] ;
327 -> 347 ;
348 [label="dst_bytes <= 8250.0\nentropy = 0.144\nsamples = 196\nvalue = [4, 192]"] ;
347 -> 348 ;
349 [label="entropy = 0.0\nsamples = 172\nvalue = [0, 172]"] ;
348 -> 349 ;
350 [label="entropy = 0.65\nsamples = 24\nvalue = [4, 20]"] ;
348 -> 350 ;
351 [label="entropy = 0.722\nsamples = 15\nvalue = [3, 12]"] ;
347 -> 351 ;
352 [label="logged_in <= 0.5\nentropy = 0.841\nsamples = 393\nvalue = [287, 106]"] ;
326 -> 352 ;
353 [label="entropy = 0.0\nsamples = 1\nvalue = [0, 1]"] ;
352 -> 353 ;
354 [label="service <= 32.0\nentropy = 0.838\nsamples = 392\nvalue = [287, 105]"] ;
352 -> 354 ;
355 [label="dst_host_serror_rate <= 0.025\nentropy = 0.697\nsamples = 293\nvalue = [238, 55]"] ;
354 -> 355 ;
356 [label="duration <= 13.5\nentropy = 0.77\nsamples = 244\nvalue = [189, 55]"] ;
355 -> 356 ;
357 [label="entropy = 0.0\nsamples = 180\nvalue = [180, 0]"] ;
356 -> 357 ;
358 [label="dst_host_srv_count <= 73.0\nentropy = 0.586\nsamples = 64\nvalue = [9, 55]"] ;
356 -> 358 ;
359 [label="dst_host_srv_count <= 2.5\nentropy = 0.294\nsamples = 58\nvalue = [3, 55]"] ;
358 -> 359 ;
360 [label="entropy = 0.0\nsamples = 3\nvalue = [3, 0]"] ;
359 -> 360 ;
361 [label="entropy = 0.0\nsamples = 55\nvalue = [0, 55]"] ;
359 -> 361 ;
362 [label="entropy = 0.0\nsamples = 6\nvalue = [6, 0]"] ;
358 -> 362 ;
363 [label="entropy = 0.0\nsamples = 49\nvalue = [49, 0]"] ;
355 -> 363 ;
364 [label="dst_host_same_srv_rate <= 0.475\nentropy = 1.0\nsamples = 99\nvalue = [49, 50]"] ;
354 -> 364 ;
365 [label="entropy = 0.0\nsamples = 1\nvalue = [0, 1]"] ;
364 -> 365 ;
366 [label="srv_count <= 7.5\nentropy = 1.0\nsamples = 98\nvalue = [49, 49]"] ;
364 -> 366 ;
367 [label="num_access_files <= 0.5\nentropy = 0.976\nsamples = 83\nvalue = [49, 34]"] ;
366 -> 367 ;
368 [label="flag <= 9.0\nentropy = 0.986\nsamples = 79\nvalue = [45, 34]"] ;
367 -> 368 ;
369 [label="entropy = 0.0\nsamples = 44\nvalue = [44, 0]"] ;
368 -> 369 ;
370 [label="entropy = 0.187\nsamples = 35\nvalue = [1, 34]"] ;
368 -> 370 ;
371 [label="entropy = 0.0\nsamples = 4\nvalue = [4, 0]"] ;
367 -> 371 ;
372 [label="entropy = 0.0\nsamples = 15\nvalue = [0, 15]"] ;
366 -> 372 ;
373 [label="dst_host_serror_rate <= 0.155\nentropy = 0.124\nsamples = 1540\nvalue = [1514, 26]"] ;
265 -> 373 ;
374 [label="srv_count <= 1.5\nentropy = 0.047\nsamples = 1522\nvalue = [1514, 8]"] ;
373 -> 374 ;
375 [label="hot <= 0.5\nentropy = 0.34\nsamples = 95\nvalue = [89, 6]"] ;
374 -> 375 ;
376 [label="entropy = 0.811\nsamples = 8\nvalue = [2, 6]"] ;
375 -> 376 ;
377 [label="entropy = 0.0\nsamples = 87\nvalue = [87, 0]"] ;
375 -> 377 ;
378 [label="src_bytes <= 6898.0\nentropy = 0.015\nsamples = 1427\nvalue = [1425, 2]"] ;
374 -> 378 ;
379 [label="entropy = 0.0\nsamples = 2\nvalue = [0, 2]"] ;
378 -> 379 ;
380 [label="entropy = 0.0\nsamples = 1425\nvalue = [1425, 0]"] ;
378 -> 380 ;
381 [label="entropy = 0.0\nsamples = 18\nvalue = [0, 18]"] ;
373 -> 381 ;
382 [label="diff_srv_rate <= 0.035\nentropy = 0.085\nsamples = 108284\nvalue = [107124, 1160]"] ;
44 -> 382 ;
383 [label="src_bytes <= 30.5\nentropy = 0.814\nsamples = 1541\nvalue = [388, 1153]"] ;
382 -> 383 ;
384 [label="entropy = 0.0\nsamples = 388\nvalue = [388, 0]"] ;
383 -> 384 ;
385 [label="entropy = 0.0\nsamples = 1153\nvalue = [0, 1153]"] ;
383 -> 385 ;
386 [label="srv_count <= 122.0\nentropy = 0.001\nsamples = 106743\nvalue = [106736, 7]"] ;
382 -> 386 ;
387 [label="count <= 155.5\nentropy = 0.001\nsamples = 106741\nvalue = [106736, 5]"] ;
386 -> 387 ;
388 [label="logged_in <= 0.5\nentropy = 0.002\nsamples = 45231\nvalue = [45226, 5]"] ;
387 -> 388 ;
389 [label="entropy = 0.0\nsamples = 45223\nvalue = [45223, 0]"] ;
388 -> 389 ;
390 [label="entropy = 0.954\nsamples = 8\nvalue = [3, 5]"] ;
388 -> 390 ;
391 [label="entropy = 0.0\nsamples = 61510\nvalue = [61510, 0]"] ;
387 -> 391 ;
392 [label="entropy = 0.0\nsamples = 2\nvalue = [0, 2]"] ;
386 -> 392 ;
}