digraph Tree {
node [shape=box] ;
0 [label="dst_host_same_srv_rate <= 0.095\nentropy = 0.716\nsamples = 494020\nvalue = [396743, 97277]"] ;
1 [label="srv_count <= 2.5\nentropy = 0.348\nsamples = 116592\nvalue = [108987, 7605]"] ;
0 -> 1 [labeldistance=2.5, labelangle=45, headlabel="True"] ;
2 [label="flag <= 6.5\nentropy = 0.936\nsamples = 20605\nvalue = [13356, 7249]"] ;
1 -> 2 ;
3 [label="dst_host_diff_srv_rate <= 0.045\nentropy = 0.008\nsamples = 13093\nvalue = [13084, 9]"] ;
2 -> 3 ;
4 [label="entropy = 0.997\nsamples = 15\nvalue = [8, 7]"] ;
3 -> 4 ;
5 [label="same_srv_rate <= 0.835\nentropy = 0.002\nsamples = 13078\nvalue = [13076, 2]"] ;
3 -> 5 ;
6 [label="entropy = 0.0\nsamples = 12185\nvalue = [12185, 0]"] ;
5 -> 6 ;
7 [label="dst_host_srv_count <= 17.0\nentropy = 0.023\nsamples = 893\nvalue = [891, 2]"] ;
5 -> 7 ;
8 [label="entropy = 0.0\nsamples = 891\nvalue = [891, 0]"] ;
7 -> 8 ;
9 [label="entropy = 0.0\nsamples = 2\nvalue = [0, 2]"] ;
7 -> 9 ;
10 [label="is_guest_login <= 0.5\nentropy = 0.225\nsamples = 7512\nvalue = [272, 7240]"] ;
2 -> 10 ;
11 [label="same_srv_rate <= 0.19\nentropy = 0.19\nsamples = 7452\nvalue = [217, 7235]"] ;
10 -> 11 ;
12 [label="dst_host_rerror_rate <= 0.035\nentropy = 0.985\nsamples = 126\nvalue = [54, 72]"] ;
11 -> 12 ;
13 [label="dst_host_rerror_rate <= 0.005\nentropy = 0.684\nsamples = 88\nvalue = [16, 72]"] ;
12 -> 13 ;
14 [label="dst_host_count <= 252.0\nentropy = 0.693\nsamples = 86\nvalue = [16, 70]"] ;
13 -> 14 ;
15 [label="entropy = 0.183\nsamples = 36\nvalue = [1, 35]"] ;
14 -> 15 ;
16 [label="serror_rate <= 0.025\nentropy = 0.881\nsamples = 50\nvalue = [15, 35]"] ;
14 -> 16 ;
17 [label="duration <= 231.0\nentropy = 0.933\nsamples = 43\nvalue = [15, 28]"] ;
16 -> 17 ;
18 [label="entropy = 0.974\nsamples = 37\nvalue = [15, 22]"] ;
17 -> 18 ;
19 [label="entropy = 0.0\nsamples = 6\nvalue = [0, 6]"] ;
17 -> 19 ;
20 [label="entropy = 0.0\nsamples = 7\nvalue = [0, 7]"] ;
16 -> 20 ;
21 [label="entropy = 0.0\nsamples = 2\nvalue = [0, 2]"] ;
13 -> 21 ;
22 [label="entropy = 0.0\nsamples = 38\nvalue = [38, 0]"] ;
12 -> 22 ;
23 [label="protocol_type <= 72.5\nentropy = 0.154\nsamples = 7326\nvalue = [163, 7163]"] ;
11 -> 23 ;
24 [label="dst_host_serror_rate <= 0.875\nentropy = 0.425\nsamples = 1573\nvalue = [136, 1437]"] ;
23 -> 24 ;
25 [label="flag <= 10.5\nentropy = 0.174\nsamples = 1456\nvalue = [38, 1418]"] ;
24 -> 25 ;
26 [label="wrong_fragment <= 0.5\nentropy = 0.157\nsamples = 1451\nvalue = [33, 1418]"] ;
25 -> 26 ;
27 [label="dst_host_rerror_rate <= 0.015\nentropy = 0.126\nsamples = 1443\nvalue = [25, 1418]"] ;
26 -> 27 ;
28 [label="dst_host_srv_diff_host_rate <= 0.01\nentropy = 0.083\nsamples = 1358\nvalue = [14, 1344]"] ;
27 -> 28 ;
29 [label="dst_host_srv_count <= 2.5\nentropy = 0.117\nsamples = 886\nvalue = [14, 872]"] ;
28 -> 29 ;
30 [label="num_shells <= 0.5\nentropy = 0.351\nsamples = 182\nvalue = [12, 170]"] ;
29 -> 30 ;
31 [label="hot <= 0.5\nentropy = 0.31\nsamples = 180\nvalue = [10, 170]"] ;
30 -> 31 ;
32 [label="diff_srv_rate <= 0.125\nentropy = 0.265\nsamples = 178\nvalue = [8, 170]"] ;
31 -> 32 ;
33 [label="dst_bytes <= 13.5\nentropy = 0.3\nsamples = 150\nvalue = [8, 142]"] ;
32 -> 33 ;
34 [label="logged_in <= 0.5\nentropy = 0.61\nsamples = 40\nvalue = [6, 34]"] ;
33 -> 34 ;
35 [label="entropy = 0.267\nsamples = 22\nvalue = [1, 21]"] ;
34 -> 35 ;
36 [label="entropy = 0.852\nsamples = 18\nvalue = [5, 13]"] ;
34 -> 36 ;
37 [label="dst_host_diff_srv_rate <= 0.025\nentropy = 0.131\nsamples = 110\nvalue = [2, 108]"] ;
33 -> 37 ;
38 [label="entropy = 0.503\nsamples = 18\nvalue = [2, 16]"] ;
37 -> 38 ;
39 [label="entropy = 0.0\nsamples = 92\nvalue = [0, 92]"] ;
37 -> 39 ;
40 [label="entropy = 0.0\nsamples = 28\nvalue = [0, 28]"] ;
32 -> 40 ;
41 [label="entropy = 0.0\nsamples = 2\nvalue = [2, 0]"] ;
31 -> 41 ;
42 [label="entropy = 0.0\nsamples = 2\nvalue = [2, 0]"] ;
30 -> 42 ;
43 [label="dst_host_serror_rate <= 0.005\nentropy = 0.028\nsamples = 704\nvalue = [2, 702]"] ;
29 -> 43 ;
44 [label="logged_in <= 0.5\nentropy = 0.03\nsamples = 645\nvalue = [2, 643]"] ;
43 -> 44 ;
45 [label="entropy = 0.0\nsamples = 380\nvalue = [0, 380]"] ;
44 -> 45 ;
46 [label="duration <= 70.0\nentropy = 0.064\nsamples = 265\nvalue = [2, 263]"] ;
44 -> 46 ;
47 [label="entropy = 0.0\nsamples = 262\nvalue = [0, 262]"] ;
46 -> 47 ;
48 [label="entropy = 0.918\nsamples = 3\nvalue = [2, 1]"] ;
46 -> 48 ;
49 [label="entropy = 0.0\nsamples = 59\nvalue = [0, 59]"] ;
43 -> 49 ;
50 [label="entropy = 0.0\nsamples = 472\nvalue = [0, 472]"] ;
28 -> 50 ;
51 [label="duration <= 1.5\nentropy = 0.556\nsamples = 85\nvalue = [11, 74]"] ;
27 -> 51 ;
52 [label="dst_host_srv_serror_rate <= 0.005\nentropy = 0.206\nsamples = 62\nvalue = [2, 60]"] ;
51 -> 52 ;
53 [label="dst_host_same_src_port_rate <= 0.025\nentropy = 0.211\nsamples = 60\nvalue = [2, 58]"] ;
52 -> 53 ;
54 [label="entropy = 0.0\nsamples = 41\nvalue = [0, 41]"] ;
53 -> 54 ;
55 [label="entropy = 0.485\nsamples = 19\nvalue = [2, 17]"] ;
53 -> 55 ;
56 [label="entropy = 0.0\nsamples = 2\nvalue = [0, 2]"] ;
52 -> 56 ;
57 [label="entropy = 0.966\nsamples = 23\nvalue = [9, 14]"] ;
51 -> 57 ;
58 [label="entropy = 0.0\nsamples = 8\nvalue = [8, 0]"] ;
26 -> 58 ;
59 [label="entropy = 0.0\nsamples = 5\nvalue = [5, 0]"] ;
25 -> 59 ;
60 [label="logged_in <= 0.5\nentropy = 0.64\nsamples = 117\nvalue = [98, 19]"] ;
24 -> 60 ;
61 [label="dst_host_srv_serror_rate <= 0.5\nentropy = 0.28\nsamples = 103\nvalue = [98, 5]"] ;
60 -> 61 ;
62 [label="entropy = 0.0\nsamples = 5\nvalue = [0, 5]"] ;
61 -> 62 ;
63 [label="entropy = 0.0\nsamples = 98\nvalue = [98, 0]"] ;
61 -> 63 ;
64 [label="entropy = 0.0\nsamples = 14\nvalue = [0, 14]"] ;
60 -> 64 ;
65 [label="src_bytes <= 28.5\nentropy = 0.043\nsamples = 5753\nvalue = [27, 5726]"] ;
23 -> 65 ;
66 [label="entropy = 0.235\nsamples = 26\nvalue = [25, 1]"] ;
65 -> 66 ;
67 [label="dst_host_diff_srv_rate <= 0.065\nentropy = 0.005\nsamples = 5727\nvalue = [2, 5725]"] ;
65 -> 67 ;
68 [label="dst_host_diff_srv_rate <= 0.055\nentropy = 0.083\nsamples = 194\nvalue = [2, 192]"] ;
67 -> 68 ;
69 [label="dst_host_same_srv_rate <= 0.005\nentropy = 0.048\nsamples = 187\nvalue = [1, 186]"] ;
68 -> 69 ;
70 [label="entropy = 0.65\nsamples = 6\nvalue = [1, 5]"] ;
69 -> 70 ;
71 [label="entropy = 0.0\nsamples = 181\nvalue = [0, 181]"] ;
69 -> 71 ;
72 [label="entropy = 0.592\nsamples = 7\nvalue = [1, 6]"] ;
68 -> 72 ;
73 [label="entropy = 0.0\nsamples = 5533\nvalue = [0, 5533]"] ;
67 -> 73 ;
74 [label="dst_host_serror_rate <= 0.005\nentropy = 0.414\nsamples = 60\nvalue = [55, 5]"] ;
10 -> 74 ;
75 [label="entropy = 0.918\nsamples = 6\nvalue = [2, 4]"] ;
74 -> 75 ;
76 [label="dst_host_count <= 93.0\nentropy = 0.133\nsamples = 54\nvalue = [53, 1]"] ;
74 -> 76 ;
77 [label="entropy = 0.0\nsamples = 1\nvalue = [0, 1]"] ;
76 -> 77 ;
78 [label="entropy = 0.0\nsamples = 53\nvalue = [53, 0]"] ;
76 -> 78 ;
79 [label="dst_host_diff_srv_rate <= 0.035\nentropy = 0.035\nsamples = 95987\nvalue = [95631, 356]"] ;
1 -> 79 ;
80 [label="service <= 59.5\nentropy = 0.954\nsamples = 414\nvalue = [155, 259]"] ;
79 -> 80 ;
81 [label="srv_count <= 10.5\nentropy = 0.755\nsamples = 198\nvalue = [155, 43]"] ;
80 -> 81 ;
82 [label="wrong_fragment <= 0.5\nentropy = 0.987\nsamples = 90\nvalue = [51, 39]"] ;
81 -> 82 ;
83 [label="duration <= 0.5\nentropy = 0.371\nsamples = 42\nvalue = [3, 39]"] ;
82 -> 83 ;
84 [label="dst_host_rerror_rate <= 0.795\nentropy = 0.281\nsamples = 41\nvalue = [2, 39]"] ;
83 -> 84 ;
85 [label="count <= 6.5\nentropy = 0.169\nsamples = 40\nvalue = [1, 39]"] ;
84 -> 85 ;
86 [label="entropy = 0.0\nsamples = 32\nvalue = [0, 32]"] ;
85 -> 86 ;
87 [label="entropy = 0.544\nsamples = 8\nvalue = [1, 7]"] ;
85 -> 87 ;
88 [label="entropy = 0.0\nsamples = 1\nvalue = [1, 0]"] ;
84 -> 88 ;
89 [label="entropy = 0.0\nsamples = 1\nvalue = [1, 0]"] ;
83 -> 89 ;
90 [label="entropy = 0.0\nsamples = 48\nvalue = [48, 0]"] ;
82 -> 90 ;
91 [label="dst_host_srv_diff_host_rate <= 0.06\nentropy = 0.229\nsamples = 108\nvalue = [104, 4]"] ;
81 -> 91 ;
92 [label="dst_host_same_src_port_rate <= 0.075\nentropy = 0.135\nsamples = 106\nvalue = [104, 2]"] ;
91 -> 92 ;
93 [label="entropy = 0.0\nsamples = 74\nvalue = [74, 0]"] ;
92 -> 93 ;
94 [label="entropy = 0.337\nsamples = 32\nvalue = [30, 2]"] ;
92 -> 94 ;
95 [label="entropy = 0.0\nsamples = 2\nvalue = [0, 2]"] ;
91 -> 95 ;
96 [label="entropy = 0.0\nsamples = 216\nvalue = [0, 216]"] ;
80 -> 96 ;
97 [label="count <= 17.5\nentropy = 0.012\nsamples = 95573\nvalue = [95476, 97]"] ;
79 -> 97 ;
98 [label="srv_diff_host_rate <= 0.06\nentropy = 0.639\nsamples = 581\nvalue = [487, 94]"] ;
97 -> 98 ;
99 [label="same_srv_rate <= 0.905\nentropy = 0.349\nsamples = 518\nvalue = [484, 34]"] ;
98 -> 99 ;
100 [label="dst_host_same_src_port_rate <= 0.03\nentropy = 0.067\nsamples = 374\nvalue = [371, 3]"] ;
99 -> 100 ;
101 [label="entropy = 0.0\nsamples = 364\nvalue = [364, 0]"] ;
100 -> 101 ;
102 [label="entropy = 0.881\nsamples = 10\nvalue = [7, 3]"] ;
100 -> 102 ;
103 [label="service <= 32.5\nentropy = 0.751\nsamples = 144\nvalue = [113, 31]"] ;
99 -> 103 ;
104 [label="service <= 30.0\nentropy = 0.987\nsamples = 53\nvalue = [23, 30]"] ;
103 -> 104 ;
105 [label="entropy = 0.402\nsamples = 25\nvalue = [23, 2]"] ;
104 -> 105 ;
106 [label="entropy = 0.0\nsamples = 28\nvalue = [0, 28]"] ;
104 -> 106 ;
107 [label="srv_count <= 9.5\nentropy = 0.087\nsamples = 91\nvalue = [90, 1]"] ;
103 -> 107 ;
108 [label="entropy = 0.0\nsamples = 56\nvalue = [56, 0]"] ;
107 -> 108 ;
109 [label="entropy = 0.187\nsamples = 35\nvalue = [34, 1]"] ;
107 -> 109 ;
110 [label="src_bytes <= 17.5\nentropy = 0.276\nsamples = 63\nvalue = [3, 60]"] ;
98 -> 110 ;
111 [label="entropy = 0.0\nsamples = 3\nvalue = [3, 0]"] ;
110 -> 111 ;
112 [label="entropy = 0.0\nsamples = 60\nvalue = [0, 60]"] ;
110 -> 112 ;
113 [label="service <= 55.0\nentropy = 0.001\nsamples = 94992\nvalue = [94989, 3]"] ;
97 -> 113 ;
114 [label="logged_in <= 0.5\nentropy = 0.011\nsamples = 3249\nvalue = [3246, 3]"] ;
113 -> 114 ;
115 [label="service <= 52.5\nentropy = 0.004\nsamples = 3247\nvalue = [3246, 1]"] ;
114 -> 115 ;
116 [label="entropy = 0.0\nsamples = 3168\nvalue = [3168, 0]"] ;
115 -> 116 ;
117 [label="diff_srv_rate <= 0.09\nentropy = 0.098\nsamples = 79\nvalue = [78, 1]"] ;
115 -> 117 ;
118 [label="entropy = 0.0\nsamples = 76\nvalue = [76, 0]"] ;
117 -> 118 ;
119 [label="entropy = 0.918\nsamples = 3\nvalue = [2, 1]"] ;
117 -> 119 ;
120 [label="entropy = 0.0\nsamples = 2\nvalue = [0, 2]"] ;
114 -> 120 ;
121 [label="entropy = 0.0\nsamples = 91743\nvalue = [91743, 0]"] ;
113 -> 121 ;
122 [label="dst_host_srv_rerror_rate <= 0.005\nentropy = 0.791\nsamples = 377428\nvalue = [287756, 89672]"] ;
0 -> 122 [labeldistance=2.5, labelangle=-45, headlabel="False"] ;
123 [label="service <= 29.5\nentropy = 0.76\nsamples = 366008\nvalue = [285501, 80507]"] ;
122 -> 123 ;
124 [label="srv_count <= 326.0\nentropy = 0.153\nsamples = 288716\nvalue = [282313, 6403]"] ;
123 -> 124 ;
125 [label="flag <= 6.5\nentropy = 0.77\nsamples = 8267\nvalue = [1865, 6402]"] ;
124 -> 125 ;
126 [label="dst_host_srv_diff_host_rate <= 0.26\nentropy = 0.088\nsamples = 90\nvalue = [89, 1]"] ;
125 -> 126 ;
127 [label="entropy = 0.0\nsamples = 75\nvalue = [75, 0]"] ;
126 -> 127 ;
128 [label="entropy = 0.353\nsamples = 15\nvalue = [14, 1]"] ;
126 -> 128 ;
129 [label="protocol_type <= 53.0\nentropy = 0.755\nsamples = 8177\nvalue = [1776, 6401]"] ;
125 -> 129 ;
130 [label="srv_diff_host_rate <= 0.25\nentropy = 0.824\nsamples = 2395\nvalue = [1776, 619]"] ;
129 -> 130 ;
131 [label="src_bytes <= 275.0\nentropy = 0.997\nsamples = 1324\nvalue = [705, 619]"] ;
130 -> 131 ;
132 [label="dst_host_srv_count <= 132.5\nentropy = 0.941\nsamples = 964\nvalue = [345, 619]"] ;
131 -> 132 ;
133 [label="dst_host_srv_diff_host_rate <= 0.23\nentropy = 0.854\nsamples = 761\nvalue = [212, 549]"] ;
132 -> 133 ;
134 [label="dst_host_same_srv_rate <= 0.74\nentropy = 0.111\nsamples = 543\nvalue = [8, 535]"] ;
133 -> 134 ;
135 [label="entropy = 0.276\nsamples = 21\nvalue = [1, 20]"] ;
134 -> 135 ;
136 [label="dst_host_same_srv_rate <= 0.995\nentropy = 0.103\nsamples = 522\nvalue = [7, 515]"] ;
134 -> 136 ;
137 [label="entropy = 0.0\nsamples = 13\nvalue = [0, 13]"] ;
136 -> 137 ;
138 [label="service <= 25.5\nentropy = 0.105\nsamples = 509\nvalue = [7, 502]"] ;
136 -> 138 ;
139 [label="src_bytes <= 24.0\nentropy = 0.049\nsamples = 184\nvalue = [1, 183]"] ;
138 -> 139 ;
140 [label="entropy = 0.0\nsamples = 1\nvalue = [1, 0]"] ;
139 -> 140 ;
141 [label="entropy = 0.0\nsamples = 183\nvalue = [0, 183]"] ;
139 -> 141 ;
142 [label="count <= 1.5\nentropy = 0.133\nsamples = 325\nvalue = [6, 319]"] ;
138 -> 142 ;
143 [label="src_bytes <= 19.0\nentropy = 0.135\nsamples = 318\nvalue = [6, 312]"] ;
142 -> 143 ;
144 [label="entropy = 0.0\nsamples = 6\nvalue = [6, 0]"] ;
143 -> 144 ;
145 [label="entropy = 0.0\nsamples = 312\nvalue = [0, 312]"] ;
143 -> 145 ;
146 [label="entropy = 0.0\nsamples = 7\nvalue = [0, 7]"] ;
142 -> 146 ;
147 [label="dst_host_srv_diff_host_rate <= 0.49\nentropy = 0.344\nsamples = 218\nvalue = [204, 14]"] ;
133 -> 147 ;
148 [label="dst_host_srv_diff_host_rate <= 0.285\nentropy = 0.804\nsamples = 57\nvalue = [43, 14]"] ;
147 -> 148 ;
149 [label="src_bytes <= 24.0\nentropy = 0.365\nsamples = 43\nvalue = [40, 3]"] ;
148 -> 149 ;
150 [label="entropy = 0.0\nsamples = 40\nvalue = [40, 0]"] ;
149 -> 150 ;
151 [label="entropy = 0.0\nsamples = 3\nvalue = [0, 3]"] ;
149 -> 151 ;
152 [label="entropy = 0.75\nsamples = 14\nvalue = [3, 11]"] ;
148 -> 152 ;
153 [label="entropy = 0.0\nsamples = 161\nvalue = [161, 0]"] ;
147 -> 153 ;
154 [label="srv_count <= 1.5\nentropy = 0.929\nsamples = 203\nvalue = [133, 70]"] ;
132 -> 154 ;
155 [label="dst_host_count <= 70.0\nentropy = 0.655\nsamples = 160\nvalue = [133, 27]"] ;
154 -> 155 ;
156 [label="entropy = 0.0\nsamples = 133\nvalue = [133, 0]"] ;
155 -> 156 ;
157 [label="entropy = 0.0\nsamples = 27\nvalue = [0, 27]"] ;
155 -> 157 ;
158 [label="entropy = 0.0\nsamples = 43\nvalue = [0, 43]"] ;
154 -> 158 ;
159 [label="entropy = 0.0\nsamples = 360\nvalue = [360, 0]"] ;
131 -> 159 ;
160 [label="entropy = 0.0\nsamples = 1071\nvalue = [1071, 0]"] ;
130 -> 160 ;
161 [label="entropy = 0.0\nsamples = 5782\nvalue = [0, 5782]"] ;
129 -> 161 ;
162 [label="dst_host_srv_count <= 231.0\nentropy = 0.0\nsamples = 280449\nvalue = [280448, 1]"] ;
124 -> 162 ;
163 [label="dst_host_diff_srv_rate <= 0.005\nentropy = 0.06\nsamples = 143\nvalue = [142, 1]"] ;
162 -> 163 ;
164 [label="entropy = 0.25\nsamples = 24\nvalue = [23, 1]"] ;
163 -> 164 ;
165 [label="entropy = 0.0\nsamples = 119\nvalue = [119, 0]"] ;
163 -> 165 ;
166 [label="entropy = 0.0\nsamples = 280306\nvalue = [280306, 0]"] ;
162 -> 166 ;
167 [label="dst_bytes <= 0.5\nentropy = 0.248\nsamples = 77292\nvalue = [3188, 74104]"] ;
123 -> 167 ;
168 [label="count <= 24.5\nentropy = 0.93\nsamples = 8100\nvalue = [2799, 5301]"] ;
167 -> 168 ;
169 [label="dst_host_srv_serror_rate <= 0.465\nentropy = 0.608\nsamples = 6218\nvalue = [927, 5291]"] ;
168 -> 169 ;
170 [label="dst_host_same_src_port_rate <= 0.985\nentropy = 0.572\nsamples = 6115\nvalue = [828, 5287]"] ;
169 -> 170 ;
171 [label="wrong_fragment <= 0.5\nentropy = 0.204\nsamples = 5412\nvalue = [173, 5239]"] ;
170 -> 171 ;
172 [label="dst_host_srv_diff_host_rate <= 0.115\nentropy = 0.137\nsamples = 5342\nvalue = [103, 5239]"] ;
171 -> 172 ;
173 [label="srv_serror_rate <= 0.675\nentropy = 0.125\nsamples = 5302\nvalue = [91, 5211]"] ;
172 -> 173 ;
174 [label="dst_host_srv_diff_host_rate <= 0.005\nentropy = 0.118\nsamples = 5293\nvalue = [84, 5209]"] ;
173 -> 174 ;
175 [label="dst_host_serror_rate <= 0.005\nentropy = 0.171\nsamples = 2998\nvalue = [76, 2922]"] ;
174 -> 175 ;
176 [label="srv_count <= 1.5\nentropy = 0.116\nsamples = 2823\nvalue = [44, 2779]"] ;
175 -> 176 ;
177 [label="num_shells <= 0.5\nentropy = 0.049\nsamples = 1274\nvalue = [7, 1267]"] ;
176 -> 177 ;
178 [label="logged_in <= 0.5\nentropy = 0.049\nsamples = 1273\nvalue = [7, 1266]"] ;
177 -> 178 ;
179 [label="dst_host_same_src_port_rate <= 0.165\nentropy = 0.019\nsamples = 1140\nvalue = [2, 1138]"] ;
178 -> 179 ;
180 [label="entropy = 0.0\nsamples = 1071\nvalue = [0, 1071]"] ;
179 -> 180 ;
181 [label="dst_host_count <= 6.5\nentropy = 0.189\nsamples = 69\nvalue = [2, 67]"] ;
179 -> 181 ;
182 [label="entropy = 1.0\nsamples = 4\nvalue = [2, 2]"] ;
181 -> 182 ;
183 [label="entropy = 0.0\nsamples = 65\nvalue = [0, 65]"] ;
181 -> 183 ;
184 [label="srv_rerror_rate <= 0.5\nentropy = 0.231\nsamples = 133\nvalue = [5, 128]"] ;
178 -> 184 ;
185 [label="duration <= 1.0\nentropy = 0.232\nsamples = 132\nvalue = [5, 127]"] ;
184 -> 185 ;
186 [label="num_root <= 0.5\nentropy = 0.235\nsamples = 130\nvalue = [5, 125]"] ;
185 -> 186 ;
187 [label="dst_host_count <= 248.0\nentropy = 0.35\nsamples = 76\nvalue = [5, 71]"] ;
186 -> 187 ;
188 [label="dst_host_diff_srv_rate <= 0.065\nentropy = 0.131\nsamples = 55\nvalue = [1, 54]"] ;
187 -> 188 ;
189 [label="entropy = 0.0\nsamples = 41\nvalue = [0, 41]"] ;
188 -> 189 ;
190 [label="entropy = 0.371\nsamples = 14\nvalue = [1, 13]"] ;
188 -> 190 ;
191 [label="entropy = 0.702\nsamples = 21\nvalue = [4, 17]"] ;
187 -> 191 ;
192 [label="entropy = 0.0\nsamples = 54\nvalue = [0, 54]"] ;
186 -> 192 ;
193 [label="entropy = 0.0\nsamples = 2\nvalue = [0, 2]"] ;
185 -> 193 ;
194 [label="entropy = 0.0\nsamples = 1\nvalue = [0, 1]"] ;
184 -> 194 ;
195 [label="entropy = 0.0\nsamples = 1\nvalue = [0, 1]"] ;
177 -> 195 ;
196 [label="logged_in <= 0.5\nentropy = 0.163\nsamples = 1549\nvalue = [37, 1512]"] ;
176 -> 196 ;
197 [label="same_srv_rate <= 0.445\nentropy = 0.222\nsamples = 899\nvalue = [32, 867]"] ;
196 -> 197 ;
198 [label="entropy = 0.764\nsamples = 9\nvalue = [7, 2]"] ;
197 -> 198 ;
199 [label="dst_host_same_srv_rate <= 0.895\nentropy = 0.185\nsamples = 890\nvalue = [25, 865]"] ;
197 -> 199 ;
200 [label="diff_srv_rate <= 0.075\nentropy = 0.317\nsamples = 419\nvalue = [24, 395]"] ;
199 -> 200 ;
201 [label="dst_host_same_srv_rate <= 0.805\nentropy = 0.379\nsamples = 326\nvalue = [24, 302]"] ;
200 -> 201 ;
202 [label="dst_host_rerror_rate <= 0.06\nentropy = 0.17\nsamples = 238\nvalue = [6, 232]"] ;
201 -> 202 ;
203 [label="dst_host_same_src_port_rate <= 0.875\nentropy = 0.148\nsamples = 237\nvalue = [5, 232]"] ;
202 -> 203 ;
204 [label="dst_host_same_src_port_rate <= 0.235\nentropy = 0.124\nsamples = 236\nvalue = [4, 232]"] ;
203 -> 204 ;
205 [label="srv_diff_host_rate <= 0.045\nentropy = 0.26\nsamples = 91\nvalue = [4, 87]"] ;
204 -> 205 ;
206 [label="src_bytes <= 102.5\nentropy = 0.274\nsamples = 85\nvalue = [4, 81]"] ;
205 -> 206 ;
207 [label="entropy = 0.0\nsamples = 4\nvalue = [4, 0]"] ;
206 -> 207 ;
208 [label="entropy = 0.0\nsamples = 81\nvalue = [0, 81]"] ;
206 -> 208 ;
209 [label="entropy = 0.0\nsamples = 6\nvalue = [0, 6]"] ;
205 -> 209 ;
210 [label="entropy = 0.0\nsamples = 145\nvalue = [0, 145]"] ;
204 -> 210 ;
211 [label="entropy = 0.0\nsamples = 1\nvalue = [1, 0]"] ;
203 -> 211 ;
212 [label="entropy = 0.0\nsamples = 1\nvalue = [1, 0]"] ;
202 -> 212 ;
213 [label="src_bytes <= 156.0\nentropy = 0.731\nsamples = 88\nvalue = [18, 70]"] ;
201 -> 213 ;
214 [label="entropy = 0.0\nsamples = 69\nvalue = [0, 69]"] ;
213 -> 214 ;
215 [label="entropy = 0.297\nsamples = 19\nvalue = [18, 1]"] ;
213 -> 215 ;
216 [label="entropy = 0.0\nsamples = 93\nvalue = [0, 93]"] ;
200 -> 216 ;
217 [label="dst_host_same_srv_rate <= 0.995\nentropy = 0.022\nsamples = 471\nvalue = [1, 470]"] ;
199 -> 217 ;
218 [label="entropy = 0.0\nsamples = 468\nvalue = [0, 468]"] ;
217 -> 218 ;
219 [label="entropy = 0.918\nsamples = 3\nvalue = [1, 2]"] ;
217 -> 219 ;
220 [label="count <= 2.5\nentropy = 0.065\nsamples = 650\nvalue = [5, 645]"] ;
196 -> 220 ;
221 [label="dst_host_count <= 250.5\nentropy = 0.151\nsamples = 230\nvalue = [5, 225]"] ;
220 -> 221 ;
222 [label="dst_host_rerror_rate <= 0.005\nentropy = 0.051\nsamples = 175\nvalue = [1, 174]"] ;
221 -> 222 ;
223 [label="dst_host_srv_serror_rate <= 0.005\nentropy = 0.053\nsamples = 168\nvalue = [1, 167]"] ;
222 -> 223 ;
224 [label="dst_host_same_srv_rate <= 0.145\nentropy = 0.054\nsamples = 163\nvalue = [1, 162]"] ;
223 -> 224 ;
225 [label="entropy = 0.353\nsamples = 15\nvalue = [1, 14]"] ;
224 -> 225 ;
226 [label="entropy = 0.0\nsamples = 148\nvalue = [0, 148]"] ;
224 -> 226 ;
227 [label="entropy = 0.0\nsamples = 5\nvalue = [0, 5]"] ;
223 -> 227 ;
228 [label="entropy = 0.0\nsamples = 7\nvalue = [0, 7]"] ;
222 -> 228 ;
229 [label="srv_count <= 2.5\nentropy = 0.376\nsamples = 55\nvalue = [4, 51]"] ;
221 -> 229 ;
230 [label="dst_host_rerror_rate <= 0.015\nentropy = 0.402\nsamples = 50\nvalue = [4, 46]"] ;
229 -> 230 ;
231 [label="dst_host_diff_srv_rate <= 0.035\nentropy = 0.414\nsamples = 48\nvalue = [4, 44]"] ;
230 -> 231 ;
232 [label="src_bytes <= 358.5\nentropy = 0.454\nsamples = 42\nvalue = [4, 38]"] ;
231 -> 232 ;
233 [label="entropy = 0.742\nsamples = 19\nvalue = [4, 15]"] ;
232 -> 233 ;
234 [label="entropy = 0.0\nsamples = 23\nvalue = [0, 23]"] ;
232 -> 234 ;
235 [label="entropy = 0.0\nsamples = 6\nvalue = [0, 6]"] ;
231 -> 235 ;
236 [label="entropy = 0.0\nsamples = 2\nvalue = [0, 2]"] ;
230 -> 236 ;
237 [label="entropy = 0.0\nsamples = 5\nvalue = [0, 5]"] ;
229 -> 237 ;
238 [label="entropy = 0.0\nsamples = 420\nvalue = [0, 420]"] ;
220 -> 238 ;
239 [label="dst_host_count <= 254.5\nentropy = 0.686\nsamples = 175\nvalue = [32, 143]"] ;
175 -> 239 ;
240 [label="entropy = 0.0\nsamples = 112\nvalue = [0, 112]"] ;
239 -> 240 ;
241 [label="count <= 3.5\nentropy = 1.0\nsamples = 63\nvalue = [32, 31]"] ;
239 -> 241 ;
242 [label="src_bytes <= 224.5\nentropy = 0.956\nsamples = 45\nvalue = [28, 17]"] ;
241 -> 242 ;
243 [label="entropy = 0.0\nsamples = 8\nvalue = [0, 8]"] ;
242 -> 243 ;
244 [label="entropy = 0.8\nsamples = 37\nvalue = [28, 9]"] ;
242 -> 244 ;
245 [label="entropy = 0.764\nsamples = 18\nvalue = [4, 14]"] ;
241 -> 245 ;
246 [label="src_bytes <= 353.5\nentropy = 0.033\nsamples = 2295\nvalue = [8, 2287]"] ;
174 -> 246 ;
247 [label="src_bytes <= 326.5\nentropy = 0.116\nsamples = 512\nvalue = [8, 504]"] ;
246 -> 247 ;
248 [label="entropy = 0.0\nsamples = 504\nvalue = [0, 504]"] ;
247 -> 248 ;
249 [label="entropy = 0.0\nsamples = 8\nvalue = [8, 0]"] ;
247 -> 249 ;
250 [label="entropy = 0.0\nsamples = 1783\nvalue = [0, 1783]"] ;
246 -> 250 ;
251 [label="entropy = 0.764\nsamples = 9\nvalue = [7, 2]"] ;
173 -> 251 ;
252 [label="dst_host_same_src_port_rate <= 0.325\nentropy = 0.881\nsamples = 40\nvalue = [12, 28]"] ;
172 -> 252 ;
253 [label="entropy = 0.0\nsamples = 21\nvalue = [0, 21]"] ;
252 -> 253 ;
254 [label="entropy = 0.949\nsamples = 19\nvalue = [12, 7]"] ;
252 -> 254 ;
255 [label="entropy = 0.0\nsamples = 70\nvalue = [70, 0]"] ;
171 -> 255 ;
256 [label="logged_in <= 0.5\nentropy = 0.359\nsamples = 703\nvalue = [655, 48]"] ;
170 -> 256 ;
257 [label="entropy = 0.994\nsamples = 33\nvalue = [15, 18]"] ;
256 -> 257 ;
258 [label="flag <= 5.5\nentropy = 0.264\nsamples = 670\nvalue = [640, 30]"] ;
256 -> 258 ;
259 [label="entropy = 0.0\nsamples = 6\nvalue = [0, 6]"] ;
258 -> 259 ;
260 [label="srv_count <= 3.5\nentropy = 0.224\nsamples = 664\nvalue = [640, 24]"] ;
258 -> 260 ;
261 [label="duration <= 2.0\nentropy = 0.141\nsamples = 650\nvalue = [637, 13]"] ;
260 -> 261 ;
262 [label="srv_diff_host_rate <= 0.335\nentropy = 0.162\nsamples = 546\nvalue = [533, 13]"] ;
261 -> 262 ;
263 [label="dst_host_serror_rate <= 0.075\nentropy = 0.134\nsamples = 537\nvalue = [527, 10]"] ;
262 -> 263 ;
264 [label="dst_host_srv_diff_host_rate <= 0.075\nentropy = 0.135\nsamples = 530\nvalue = [520, 10]"] ;
263 -> 264 ;
265 [label="dst_host_same_srv_rate <= 0.6\nentropy = 0.448\nsamples = 107\nvalue = [97, 10]"] ;
264 -> 265 ;
266 [label="entropy = 0.0\nsamples = 1\nvalue = [1, 0]"] ;
265 -> 266 ;
267 [label="num_root <= 2.5\nentropy = 0.451\nsamples = 106\nvalue = [96, 10]"] ;
265 -> 267 ;
268 [label="dst_host_srv_count <= 47.0\nentropy = 0.422\nsamples = 105\nvalue = [96, 9]"] ;
267 -> 268 ;
269 [label="dst_host_srv_diff_host_rate <= 0.065\nentropy = 0.284\nsamples = 101\nvalue = [96, 5]"] ;
268 -> 269 ;
270 [label="src_bytes <= 219.0\nentropy = 0.269\nsamples = 87\nvalue = [83, 4]"] ;
269 -> 270 ;
271 [label="entropy = 0.0\nsamples = 2\nvalue = [0, 2]"] ;
270 -> 271 ;
272 [label="src_bytes <= 766.5\nentropy = 0.161\nsamples = 85\nvalue = [83, 2]"] ;
270 -> 272 ;
273 [label="entropy = 0.0\nsamples = 83\nvalue = [83, 0]"] ;
272 -> 273 ;
274 [label="entropy = 0.0\nsamples = 2\nvalue = [0, 2]"] ;
272 -> 274 ;
275 [label="entropy = 0.371\nsamples = 14\nvalue = [13, 1]"] ;
269 -> 275 ;
276 [label="entropy = 0.0\nsamples = 4\nvalue = [0, 4]"] ;
268 -> 276 ;
277 [label="entropy = 0.0\nsamples = 1\nvalue = [0, 1]"] ;
267 -> 277 ;
278 [label="entropy = 0.0\nsamples = 423\nvalue = [423, 0]"] ;
264 -> 278 ;
279 [label="entropy = 0.0\nsamples = 7\nvalue = [7, 0]"] ;
263 -> 279 ;
280 [label="entropy = 0.918\nsamples = 9\nvalue = [6, 3]"] ;
262 -> 280 ;
281 [label="entropy = 0.0\nsamples = 104\nvalue = [104, 0]"] ;
261 -> 281 ;
282 [label="entropy = 0.75\nsamples = 14\nvalue = [3, 11]"] ;
260 -> 282 ;
283 [label="dst_host_srv_count <= 60.5\nentropy = 0.237\nsamples = 103\nvalue = [99, 4]"] ;
169 -> 283 ;
284 [label="entropy = 0.0\nsamples = 62\nvalue = [62, 0]"] ;
283 -> 284 ;
285 [label="srv_serror_rate <= 0.165\nentropy = 0.461\nsamples = 41\nvalue = [37, 4]"] ;
283 -> 285 ;
286 [label="entropy = 0.0\nsamples = 4\nvalue = [0, 4]"] ;
285 -> 286 ;
287 [label="entropy = 0.0\nsamples = 37\nvalue = [37, 0]"] ;
285 -> 287 ;
288 [label="protocol_type <= 53.0\nentropy = 0.048\nsamples = 1882\nvalue = [1872, 10]"] ;
168 -> 288 ;
289 [label="entropy = 0.0\nsamples = 1\nvalue = [0, 1]"] ;
288 -> 289 ;
290 [label="dst_host_same_srv_rate <= 0.735\nentropy = 0.044\nsamples = 1881\nvalue = [1872, 9]"] ;
288 -> 290 ;
291 [label="service <= 55.5\nentropy = 0.031\nsamples = 1873\nvalue = [1867, 6]"] ;
290 -> 291 ;
292 [label="dst_host_diff_srv_rate <= 0.08\nentropy = 0.271\nsamples = 129\nvalue = [123, 6]"] ;
291 -> 292 ;
293 [label="diff_srv_rate <= 0.02\nentropy = 0.068\nsamples = 123\nvalue = [122, 1]"] ;
292 -> 293 ;
294 [label="entropy = 0.0\nsamples = 1\nvalue = [0, 1]"] ;
293 -> 294 ;
295 [label="entropy = 0.0\nsamples = 122\nvalue = [122, 0]"] ;
293 -> 295 ;
296 [label="entropy = 0.65\nsamples = 6\nvalue = [1, 5]"] ;
292 -> 296 ;
297 [label="entropy = 0.0\nsamples = 1744\nvalue = [1744, 0]"] ;
291 -> 297 ;
298 [label="entropy = 0.954\nsamples = 8\nvalue = [5, 3]"] ;
290 -> 298 ;
299 [label="is_guest_login <= 0.5\nentropy = 0.05\nsamples = 69192\nvalue = [389, 68803]"] ;
167 -> 299 ;
300 [label="num_compromised <= 0.5\nentropy = 0.02\nsamples = 68595\nvalue = [132, 68463]"] ;
299 -> 300 ;
301 [label="duration <= 5.5\nentropy = 0.01\nsamples = 68491\nvalue = [59, 68432]"] ;
300 -> 301 ;
302 [label="dst_host_same_src_port_rate <= 0.97\nentropy = 0.005\nsamples = 66590\nvalue = [28, 66562]"] ;
301 -> 302 ;
303 [label="count <= 97.5\nentropy = 0.002\nsamples = 65635\nvalue = [9, 65626]"] ;
302 -> 303 ;
304 [label="dst_host_serror_rate <= 0.54\nentropy = 0.002\nsamples = 65633\nvalue = [7, 65626]"] ;
303 -> 304 ;
305 [label="dst_host_same_srv_rate <= 0.355\nentropy = 0.001\nsamples = 65602\nvalue = [6, 65596]"] ;
304 -> 305 ;
306 [label="dst_host_rerror_rate <= 0.005\nentropy = 0.047\nsamples = 578\nvalue = [3, 575]"] ;
305 -> 306 ;
307 [label="entropy = 0.0\nsamples = 505\nvalue = [0, 505]"] ;
306 -> 307 ;
308 [label="dst_host_diff_srv_rate <= 0.955\nentropy = 0.247\nsamples = 73\nvalue = [3, 70]"] ;
306 -> 308 ;
309 [label="dst_bytes <= 135.0\nentropy = 0.183\nsamples = 72\nvalue = [2, 70]"] ;
308 -> 309 ;
310 [label="entropy = 0.0\nsamples = 1\nvalue = [1, 0]"] ;
309 -> 310 ;
311 [label="dst_host_srv_count <= 127.0\nentropy = 0.107\nsamples = 71\nvalue = [1, 70]"] ;
309 -> 311 ;
312 [label="entropy = 0.0\nsamples = 63\nvalue = [0, 63]"] ;
311 -> 312 ;
313 [label="entropy = 0.544\nsamples = 8\nvalue = [1, 7]"] ;
311 -> 313 ;
314 [label="entropy = 0.0\nsamples = 1\nvalue = [1, 0]"] ;
308 -> 314 ;
315 [label="rerror_rate <= 0.7\nentropy = 0.001\nsamples = 65024\nvalue = [3, 65021]"] ;
305 -> 315 ;
316 [label="dst_host_same_src_port_rate <= 0.005\nentropy = 0.001\nsamples = 65023\nvalue = [2, 65021]"] ;
315 -> 316 ;
317 [label="dst_host_srv_count <= 241.5\nentropy = 0.001\nsamples = 26872\nvalue = [2, 26870]"] ;
316 -> 317 ;
318 [label="dst_host_srv_count <= 240.5\nentropy = 0.003\nsamples = 4096\nvalue = [1, 4095]"] ;
317 -> 318 ;
319 [label="entropy = 0.0\nsamples = 3837\nvalue = [0, 3837]"] ;
318 -> 319 ;
320 [label="dst_bytes <= 8029.0\nentropy = 0.037\nsamples = 259\nvalue = [1, 258]"] ;
318 -> 320 ;
321 [label="entropy = 0.0\nsamples = 252\nvalue = [0, 252]"] ;
320 -> 321 ;
322 [label="entropy = 0.592\nsamples = 7\nvalue = [1, 6]"] ;
320 -> 322 ;
323 [label="dst_host_same_srv_rate <= 0.995\nentropy = 0.001\nsamples = 22776\nvalue = [1, 22775]"] ;
317 -> 323 ;
324 [label="entropy = 0.0\nsamples = 2811\nvalue = [0, 2811]"] ;
323 -> 324 ;
325 [label="num_access_files <= 0.5\nentropy = 0.001\nsamples = 19965\nvalue = [1, 19964]"] ;
323 -> 325 ;
326 [label="entropy = 0.0\nsamples = 19932\nvalue = [0, 19932]"] ;
325 -> 326 ;
327 [label="entropy = 0.196\nsamples = 33\nvalue = [1, 32]"] ;
325 -> 327 ;
328 [label="entropy = 0.0\nsamples = 38151\nvalue = [0, 38151]"] ;
316 -> 328 ;
329 [label="entropy = 0.0\nsamples = 1\nvalue = [1, 0]"] ;
315 -> 329 ;
330 [label="entropy = 0.206\nsamples = 31\nvalue = [1, 30]"] ;
304 -> 330 ;
331 [label="entropy = 0.0\nsamples = 2\nvalue = [2, 0]"] ;
303 -> 331 ;
332 [label="dst_host_srv_count <= 86.0\nentropy = 0.141\nsamples = 955\nvalue = [19, 936]"] ;
302 -> 332 ;
333 [label="dst_host_srv_diff_host_rate <= 0.025\nentropy = 0.739\nsamples = 91\nvalue = [19, 72]"] ;
332 -> 333 ;
334 [label="same_srv_rate <= 0.75\nentropy = 0.896\nsamples = 48\nvalue = [15, 33]"] ;
333 -> 334 ;
335 [label="entropy = 0.0\nsamples = 1\nvalue = [0, 1]"] ;
334 -> 335 ;
336 [label="dst_bytes <= 1814.5\nentropy = 0.903\nsamples = 47\nvalue = [15, 32]"] ;
334 -> 336 ;
337 [label="entropy = 0.469\nsamples = 30\nvalue = [3, 27]"] ;
336 -> 337 ;
338 [label="entropy = 0.874\nsamples = 17\nvalue = [12, 5]"] ;
336 -> 338 ;
339 [label="src_bytes <= 19.0\nentropy = 0.446\nsamples = 43\nvalue = [4, 39]"] ;
333 -> 339 ;
340 [label="entropy = 0.722\nsamples = 5\nvalue = [4, 1]"] ;
339 -> 340 ;
341 [label="entropy = 0.0\nsamples = 38\nvalue = [0, 38]"] ;
339 -> 341 ;
342 [label="entropy = 0.0\nsamples = 864\nvalue = [0, 864]"] ;
332 -> 342 ;
343 [label="dst_host_same_src_port_rate <= 0.16\nentropy = 0.12\nsamples = 1901\nvalue = [31, 1870]"] ;
301 -> 343 ;
344 [label="num_access_files <= 0.5\nentropy = 0.023\nsamples = 1806\nvalue = [4, 1802]"] ;
343 -> 344 ;
345 [label="dst_host_same_srv_rate <= 0.195\nentropy = 0.007\nsamples = 1793\nvalue = [1, 1792]"] ;
344 -> 345 ;
346 [label="logged_in <= 0.5\nentropy = 0.118\nsamples = 63\nvalue = [1, 62]"] ;
345 -> 346 ;
347 [label="entropy = 0.918\nsamples = 3\nvalue = [1, 2]"] ;
346 -> 347 ;
348 [label="entropy = 0.0\nsamples = 60\nvalue = [0, 60]"] ;
346 -> 348 ;
349 [label="entropy = 0.0\nsamples = 1730\nvalue = [0, 1730]"] ;
345 -> 349 ;
350 [label="entropy = 0.779\nsamples = 13\nvalue = [3, 10]"] ;
344 -> 350 ;
351 [label="srv_diff_host_rate <= 0.035\nentropy = 0.861\nsamples = 95\nvalue = [27, 68]"] ;
343 -> 351 ;
352 [label="protocol_type <= 72.5\nentropy = 0.947\nsamples = 74\nvalue = [27, 47]"] ;
351 -> 352 ;
353 [label="dst_bytes <= 3002474.0\nentropy = 0.999\nsamples = 52\nvalue = [27, 25]"] ;
352 -> 353 ;
354 [label="entropy = 0.909\nsamples = 37\nvalue = [12, 25]"] ;
353 -> 354 ;
355 [label="entropy = 0.0\nsamples = 15\nvalue = [15, 0]"] ;
353 -> 355 ;
356 [label="entropy = 0.0\nsamples = 22\nvalue = [0, 22]"] ;
352 -> 356 ;
357 [label="entropy = 0.0\nsamples = 21\nvalue = [0, 21]"] ;
351 -> 357 ;
358 [label="src_bytes <= 6062.0\nentropy = 0.879\nsamples = 104\nvalue = [73, 31]"] ;
300 -> 358 ;
359 [label="dst_host_serror_rate <= 0.005\nentropy = 0.949\nsamples = 49\nvalue = [18, 31]"] ;
358 -> 359 ;
360 [label="entropy = 0.996\nsamples = 39\nvalue = [18, 21]"] ;
359 -> 360 ;
361 [label="entropy = 0.0\nsamples = 10\nvalue = [0, 10]"] ;
359 -> 361 ;
362 [label="entropy = 0.0\nsamples = 55\nvalue = [55, 0]"] ;
358 -> 362 ;
363 [label="src_bytes <= 1103.5\nentropy = 0.986\nsamples = 597\nvalue = [257, 340]"] ;
299 -> 363 ;
364 [label="num_file_creations <= 0.5\nentropy = 0.191\nsamples = 306\nvalue = [9, 297]"] ;
363 -> 364 ;
365 [label="dst_host_same_src_port_rate <= 0.005\nentropy = 0.158\nsamples = 304\nvalue = [7, 297]"] ;
364 -> 365 ;
366 [label="src_bytes <= 348.0\nentropy = 0.483\nsamples = 67\nvalue = [7, 60]"] ;
365 -> 366 ;
367 [label="entropy = 0.0\nsamples = 41\nvalue = [0, 41]"] ;
366 -> 367 ;
368 [label="entropy = 0.84\nsamples = 26\nvalue = [7, 19]"] ;
366 -> 368 ;
369 [label="entropy = 0.0\nsamples = 237\nvalue = [0, 237]"] ;
365 -> 369 ;
370 [label="entropy = 0.0\nsamples = 2\nvalue = [2, 0]"] ;
364 -> 370 ;
371 [label="srv_count <= 1.5\nentropy = 0.604\nsamples = 291\nvalue = [248, 43]"] ;
363 -> 371 ;
372 [label="count <= 1.5\nentropy = 0.589\nsamples = 289\nvalue = [248, 41]"] ;
371 -> 372 ;
373 [label="dst_bytes <= 2912.0\nentropy = 0.573\nsamples = 287\nvalue = [248, 39]"] ;
372 -> 373 ;
374 [label="entropy = 0.0\nsamples = 248\nvalue = [248, 0]"] ;
373 -> 374 ;
375 [label="entropy = 0.0\nsamples = 39\nvalue = [0, 39]"] ;
373 -> 375 ;
376 [label="entropy = 0.0\nsamples = 2\nvalue = [0, 2]"] ;
372 -> 376 ;
377 [label="entropy = 0.0\nsamples = 2\nvalue = [0, 2]"] ;
371 -> 377 ;
378 [label="dst_host_srv_rerror_rate <= 0.325\nentropy = 0.717\nsamples = 11420\nvalue = [2255, 9165]"] ;
122 -> 378 ;
379 [label="duration <= 0.5\nentropy = 0.969\nsamples = 5394\nvalue = [2138, 3256]"] ;
378 -> 379 ;
380 [label="dst_bytes <= 7298.5\nentropy = 0.981\nsamples = 5065\nvalue = [2118, 2947]"] ;
379 -> 380 ;
381 [label="srv_rerror_rate <= 0.155\nentropy = 0.09\nsamples = 2540\nvalue = [29, 2511]"] ;
380 -> 381 ;
382 [label="dst_host_srv_count <= 13.5\nentropy = 0.029\nsamples = 2357\nvalue = [7, 2350]"] ;
381 -> 382 ;
383 [label="entropy = 1.0\nsamples = 8\nvalue = [4, 4]"] ;
382 -> 383 ;
384 [label="hot <= 0.5\nentropy = 0.014\nsamples = 2349\nvalue = [3, 2346]"] ;
382 -> 384 ;
385 [label="dst_host_srv_diff_host_rate <= 0.085\nentropy = 0.005\nsamples = 2341\nvalue = [1, 2340]"] ;
384 -> 385 ;
386 [label="entropy = 0.0\nsamples = 2314\nvalue = [0, 2314]"] ;
385 -> 386 ;
387 [label="entropy = 0.229\nsamples = 27\nvalue = [1, 26]"] ;
385 -> 387 ;
388 [label="entropy = 0.811\nsamples = 8\nvalue = [2, 6]"] ;
384 -> 388 ;
389 [label="dst_host_same_src_port_rate <= 0.005\nentropy = 0.53\nsamples = 183\nvalue = [22, 161]"] ;
381 -> 389 ;
390 [label="srv_rerror_rate <= 0.875\nentropy = 0.797\nsamples = 58\nvalue = [14, 44]"] ;
389 -> 390 ;
391 [label="entropy = 0.971\nsamples = 35\nvalue = [14, 21]"] ;
390 -> 391 ;
392 [label="entropy = 0.0\nsamples = 23\nvalue = [0, 23]"] ;
390 -> 392 ;
393 [label="dst_host_serror_rate <= 0.005\nentropy = 0.343\nsamples = 125\nvalue = [8, 117]"] ;
389 -> 393 ;
394 [label="src_bytes <= 28707.0\nentropy = 0.376\nsamples = 110\nvalue = [8, 102]"] ;
393 -> 394 ;
395 [label="count <= 1.5\nentropy = 0.31\nsamples = 108\nvalue = [6, 102]"] ;
394 -> 395 ;
396 [label="dst_host_same_src_port_rate <= 0.185\nentropy = 0.368\nsamples = 85\nvalue = [6, 79]"] ;
395 -> 396 ;
397 [label="entropy = 0.0\nsamples = 52\nvalue = [0, 52]"] ;
396 -> 397 ;
398 [label="entropy = 0.684\nsamples = 33\nvalue = [6, 27]"] ;
396 -> 398 ;
399 [label="entropy = 0.0\nsamples = 23\nvalue = [0, 23]"] ;
395 -> 399 ;
400 [label="entropy = 0.0\nsamples = 2\nvalue = [2, 0]"] ;
394 -> 400 ;
401 [label="entropy = 0.0\nsamples = 15\nvalue = [0, 15]"] ;
393 -> 401 ;
402 [label="dst_host_rerror_rate <= 0.005\nentropy = 0.664\nsamples = 2525\nvalue = [2089, 436]"] ;
380 -> 402 ;
403 [label="entropy = 0.0\nsamples = 133\nvalue = [0, 133]"] ;
402 -> 403 ;
404 [label="num_compromised <= 0.5\nentropy = 0.548\nsamples = 2392\nvalue = [2089, 303]"] ;
402 -> 404 ;
405 [label="dst_host_srv_diff_host_rate <= 0.005\nentropy = 0.563\nsamples = 348\nvalue = [46, 302]"] ;
404 -> 405 ;
406 [label="hot <= 0.5\nentropy = 0.87\nsamples = 158\nvalue = [46, 112]"] ;
405 -> 406 ;
407 [label="dst_host_srv_rerror_rate <= 0.025\nentropy = 0.29\nsamples = 118\nvalue = [6, 112]"] ;
406 -> 407 ;
408 [label="entropy = 0.0\nsamples = 91\nvalue = [0, 91]"] ;
407 -> 408 ;
409 [label="entropy = 0.764\nsamples = 27\nvalue = [6, 21]"] ;
407 -> 409 ;
410 [label="entropy = 0.0\nsamples = 40\nvalue = [40, 0]"] ;
406 -> 410 ;
411 [label="entropy = 0.0\nsamples = 190\nvalue = [0, 190]"] ;
405 -> 411 ;
412 [label="dst_host_count <= 43.5\nentropy = 0.006\nsamples = 2044\nvalue = [2043, 1]"] ;
404 -> 412 ;
413 [label="num_compromised <= 2.5\nentropy = 0.093\nsamples = 84\nvalue = [83, 1]"] ;
412 -> 413 ;
414 [label="entropy = 0.0\nsamples = 83\nvalue = [83, 0]"] ;
413 -> 414 ;
415 [label="entropy = 0.0\nsamples = 1\nvalue = [0, 1]"] ;
413 -> 415 ;
416 [label="entropy = 0.0\nsamples = 1960\nvalue = [1960, 0]"] ;
412 -> 416 ;
417 [label="dst_bytes <= 3623.5\nentropy = 0.331\nsamples = 329\nvalue = [20, 309]"] ;
379 -> 417 ;
418 [label="dst_host_same_srv_rate <= 0.99\nentropy = 0.197\nsamples = 294\nvalue = [9, 285]"] ;
417 -> 418 ;
419 [label="flag <= 7.5\nentropy = 0.066\nsamples = 254\nvalue = [2, 252]"] ;
418 -> 419 ;
420 [label="entropy = 0.971\nsamples = 5\nvalue = [2, 3]"] ;
419 -> 420 ;
421 [label="entropy = 0.0\nsamples = 249\nvalue = [0, 249]"] ;
419 -> 421 ;
422 [label="dst_host_srv_diff_host_rate <= 0.085\nentropy = 0.669\nsamples = 40\nvalue = [7, 33]"] ;
418 -> 422 ;
423 [label="entropy = 0.316\nsamples = 35\nvalue = [2, 33]"] ;
422 -> 423 ;
424 [label="entropy = 0.0\nsamples = 5\nvalue = [5, 0]"] ;
422 -> 424 ;
425 [label="entropy = 0.898\nsamples = 35\nvalue = [11, 24]"] ;
417 -> 425 ;
426 [label="dst_host_srv_count <= 52.5\nentropy = 0.138\nsamples = 6026\nvalue = [117, 5909]"] ;
378 -> 426 ;
427 [label="hot <= 0.5\nentropy = 0.682\nsamples = 641\nvalue = [116, 525]"] ;
426 -> 427 ;
428 [label="srv_diff_host_rate <= 0.04\nentropy = 0.324\nsamples = 557\nvalue = [33, 524]"] ;
427 -> 428 ;
429 [label="count <= 50.0\nentropy = 0.385\nsamples = 439\nvalue = [33, 406]"] ;
428 -> 429 ;
430 [label="dst_host_same_srv_rate <= 0.145\nentropy = 0.164\nsamples = 416\nvalue = [10, 406]"] ;
429 -> 430 ;
431 [label="entropy = 0.971\nsamples = 10\nvalue = [6, 4]"] ;
430 -> 431 ;
432 [label="dst_host_srv_diff_host_rate <= 0.85\nentropy = 0.08\nsamples = 406\nvalue = [4, 402]"] ;
430 -> 432 ;
433 [label="logged_in <= 0.5\nentropy = 0.045\nsamples = 400\nvalue = [2, 398]"] ;
432 -> 433 ;
434 [label="entropy = 0.0\nsamples = 364\nvalue = [0, 364]"] ;
433 -> 434 ;
435 [label="entropy = 0.31\nsamples = 36\nvalue = [2, 34]"] ;
433 -> 435 ;
436 [label="entropy = 0.918\nsamples = 6\nvalue = [2, 4]"] ;
432 -> 436 ;
437 [label="entropy = 0.0\nsamples = 23\nvalue = [23, 0]"] ;
429 -> 437 ;
438 [label="entropy = 0.0\nsamples = 118\nvalue = [0, 118]"] ;
428 -> 438 ;
439 [label="srv_serror_rate <= 0.25\nentropy = 0.093\nsamples = 84\nvalue = [83, 1]"] ;
427 -> 439 ;
440 [label="entropy = 0.0\nsamples = 81\nvalue = [81, 0]"] ;
439 -> 440 ;
441 [label="entropy = 0.918\nsamples = 3\nvalue = [2, 1]"] ;
439 -> 441 ;
442 [label="dst_host_count <= 253.5\nentropy = 0.003\nsamples = 5385\nvalue = [1, 5384]"] ;
426 -> 442 ;
443 [label="entropy = 0.0\nsamples = 5355\nvalue = [0, 5355]"] ;
442 -> 443 ;
444 [label="entropy = 0.211\nsamples = 30\nvalue = [1, 29]"] ;
442 -> 444 ;
}